<?xml version="1.0"?>
<opencv_storage>
<opencv_ml_svm>
  <format>3</format>
  <svmType>C_SVC</svmType>
  <kernel>
    <type>LINEAR</type></kernel>
  <C>1.</C>
  <term_criteria><epsilon>9.9999999999999995e-07</epsilon></term_criteria>
  <var_count>400</var_count>
  <class_count>5</class_count>
  <class_labels type_id="opencv-matrix">
    <rows>5</rows>
    <cols>1</cols>
    <dt>i</dt>
    <data>
      1 2 3 4 5</data></class_labels>
  <sv_total>10</sv_total>
  <support_vectors>
    <_>
      0. 0. -1.05231848e-05 -5.23528433e-05 -6.70852969e-05
      -6.60889054e-05 -5.26239237e-05 1.81338837e-05 2.52176469e-05
      -1.69936375e-05 -1.26951098e-04 -6.67200147e-05 8.80654261e-06
      9.89125547e-05 1.20434757e-04 8.99716615e-05 3.92393704e-05
      2.32612838e-05 2.67796040e-05 2.44842090e-06 0. 0. -1.05231848e-05
      -5.23528433e-05 -7.76226589e-05 -9.20352031e-05 -5.94411649e-05
      -2.65719245e-06 2.86088052e-05 1.53279652e-05 -3.50324699e-05
      9.94234415e-06 4.53235552e-05 7.04211197e-05 6.06849426e-05
      7.15927526e-05 3.88027547e-05 2.43136019e-05 2.67796040e-05
      2.44842090e-06 0. 0. -1.34170605e-05 -4.29976790e-05
      -7.10399545e-05 -1.04204650e-04 -6.82525570e-05 -5.08785297e-06
      7.17224320e-05 8.19909401e-05 5.68017385e-05 7.45358411e-05
      1.55832731e-05 -2.54074130e-05 -2.38427529e-05 3.91331268e-05
      3.89239503e-05 2.83743993e-05 2.47328189e-05 2.44842090e-06
      4.05251603e-06 9.59806471e-07 -1.93365963e-06 -2.00641171e-05
      -2.97494116e-05 7.33916613e-06 5.74233381e-05 1.08383960e-04
      1.40567514e-04 9.64860883e-05 5.17572807e-05 9.51318580e-05
      6.79122895e-05 -1.76051817e-05 -6.17272017e-05 -3.30015537e-05
      -6.89752096e-06 -2.72084289e-05 -9.65317849e-06 -1.23579298e-06
      1.90894843e-05 7.46516162e-06 2.30437649e-06 -1.53539550e-05
      -5.87327759e-06 7.70158949e-05 1.04835788e-04 1.14719398e-04
      1.35220194e-04 1.14351329e-04 7.62314812e-05 1.30516535e-04
      1.30220214e-04 3.94615054e-05 -7.76452143e-05 -8.81930828e-05
      -6.32391384e-05 -6.44454849e-05 -6.24602471e-05 -3.76685748e-05
      2.61280657e-05 2.13290332e-05 1.93076576e-05 7.67549500e-06
      3.15048819e-05 6.95269118e-05 -3.36542530e-06 4.10710818e-05
      1.00645164e-04 8.29955534e-05 3.14610807e-05 6.04536326e-05
      7.53157583e-05 1.69890154e-05 -7.28759187e-05 -8.67066119e-05
      -7.87632962e-05 -6.70259469e-05 -7.71971027e-05 -9.08849979e-05
      2.71945173e-05 2.54881943e-05 2.53432136e-05 2.31495633e-05
      6.77329581e-06 -4.47613820e-05 -1.16326948e-04 1.67703947e-05
      5.83927140e-05 2.24253690e-05 -3.22574160e-05 -1.06980206e-05
      -2.74291124e-05 -1.00117766e-04 -1.61839940e-04 -1.05772990e-04
      -6.76985583e-05 -6.48548375e-05 -7.76064626e-05 -1.01937643e-04
      2.28450754e-05 2.46566415e-05 2.21821938e-05 1.50507785e-05
      -3.43291649e-05 -8.02343129e-05 -1.01415259e-04 -1.21245034e-06
      3.60565573e-05 3.31938609e-05 -3.69825852e-06 -4.49161234e-06
      -4.15229988e-05 -1.69046485e-04 -1.96632667e-04 -1.17796895e-04
      -4.74401022e-05 -6.28803464e-05 -7.45459329e-05 -9.67442102e-05
      8.49192111e-06 2.10537182e-05 1.33306457e-05 -5.99429814e-06
      -4.19578246e-05 -4.60016126e-05 -2.43894683e-05 6.32799565e-05
      1.15072347e-04 1.33764232e-04 1.06011794e-04 5.35652180e-05
      -6.66405613e-05 -1.67427570e-04 -1.71405700e-04 -9.28284571e-05
      -6.30509749e-05 -7.56001100e-05 -6.70557201e-05 -7.11455505e-05
      -3.97647682e-06 1.56427068e-05 2.01559360e-05 3.49776747e-06
      -9.72687940e-06 -3.93206074e-06 6.76242280e-06 8.71847296e-05
      1.27520587e-04 1.27737745e-04 1.08937718e-04 3.53034520e-05
      -1.05365034e-04 -1.45262922e-04 -1.41424694e-04 -7.74301807e-05
      -6.89938970e-05 -8.10457932e-05 -4.88229198e-05 -7.71453870e-06
      -5.77619858e-06 1.54893623e-05 2.55948398e-05 9.70470956e-06
      7.03858086e-06 1.18376129e-05 9.14427255e-06 8.71847296e-05
      1.26306841e-04 1.05884232e-04 2.92677287e-05 -4.95730164e-05
      -7.10254390e-05 -1.09919609e-04 -1.09964982e-04 -5.36493826e-05
      -7.68457321e-05 -7.44038625e-05 -1.32357354e-06 3.17043086e-05
      -6.37565381e-06 1.73225380e-05 2.66612915e-05 2.13290332e-05
      2.13290332e-05 1.85562585e-05 9.95909704e-06 8.04304073e-05
      8.19162524e-05 2.66369807e-05 -5.11688304e-05 -6.35406177e-05
      -9.35457865e-05 -1.09117143e-04 -4.91260289e-05 -2.63438924e-05
      -5.21424481e-05 -1.66431018e-05 4.18029085e-05 3.89033958e-05
      1.89524599e-06 2.23069674e-05 2.71945173e-05 2.71945173e-05
      2.71945173e-05 2.15616183e-05 -1.02079757e-05 9.10946073e-06
      -3.03843171e-05 -5.03022857e-05 -9.68363311e-05 -1.18160198e-04
      -1.09326196e-04 -2.70191358e-05 -1.00046850e-06 7.13411418e-06
      1.97852714e-05 3.50064729e-05 5.21756665e-05 3.63760955e-05
      3.96888163e-06 2.01775456e-05 2.71945173e-05 2.71945173e-05
      2.59807694e-05 -5.50226650e-06 -9.77275195e-05 -8.86673733e-05
      -8.64393005e-05 -1.04273910e-04 -1.78203729e-04 -1.37676747e-04
      -4.24172176e-05 2.36554533e-05 4.82607174e-05 8.74113030e-05
      6.54884789e-05 4.11546134e-05 4.70933010e-05 3.08671479e-05
      9.38477478e-06 1.66366463e-05 2.66612915e-05 2.58896853e-05
      9.85818679e-06 -8.01539354e-05 -1.69333143e-04 -1.69185339e-04
      -2.00449504e-04 -1.88810547e-04 -2.35528045e-04 -1.20730016e-04
      -2.34404365e-06 7.73864231e-05 1.25177990e-04 1.29083390e-04
      6.62303501e-05 4.49938379e-05 5.64414731e-05 3.63760955e-05
      7.25187101e-06 1.03445809e-05 2.55948398e-05 1.42410472e-05
      -5.29175159e-05 -1.55766218e-04 -2.52960919e-04 -2.87785806e-04
      -2.77937041e-04 -1.91181432e-04 -1.85171652e-04 -1.02976453e-04
      -1.86518741e-06 5.74634432e-05 1.12100890e-04 1.08543507e-04
      6.18307822e-05 4.23277088e-05 5.41697409e-05 3.89033958e-05
      6.39870962e-07 6.39870996e-06 2.15016717e-05 -2.08147831e-05
      -1.33024616e-04 -2.49507459e-04 -3.90439731e-04 -3.55730008e-04
      -2.26696968e-04 -1.38757663e-04 -1.35228314e-04 -3.96288597e-05
      2.18204750e-05 7.04856529e-06 3.16843616e-05 3.07882401e-05
      2.99084732e-05 3.13648925e-05 3.91950598e-05 3.12872289e-05 0.
      9.59806471e-07 6.56094062e-06 -6.60678561e-05 -2.10224287e-04
      -3.62860243e-04 -4.60188196e-04 -3.52235627e-04 -1.84420540e-04
      -9.60900143e-05 -9.86723244e-05 -4.19560347e-05 -2.35448751e-05
      -6.16492107e-05 -5.77366445e-05 -8.68053758e-05 -1.06925210e-04
      -5.04964883e-05 -2.93904031e-05 -3.60400991e-05 0. 1.06645167e-07
      -8.32930436e-06 -1.06633037e-04 -2.58076208e-04 -3.68121429e-04
      -4.24561207e-04 -3.11324198e-04 -1.23193735e-04 -1.31481893e-05
      -4.74481094e-05 -2.78451844e-05 -4.51936876e-06 -2.67610885e-05
      -5.66407361e-05 -1.18192482e-04 -1.65428137e-04 -1.00494188e-04
      -6.61482700e-05 -7.13481495e-05 0. 7.46516150e-07 -1.74032466e-05
      -1.09023662e-04 -2.10463084e-04 -2.98137427e-04 -3.48289526e-04
      -2.31169179e-04 -9.32963012e-05 1.12100743e-05 -2.19926096e-05
      -2.27628643e-05 1.43497630e-07 -7.51943571e-06 -1.46656248e-05
      -5.02394214e-05 -9.45738211e-05 -7.17538787e-05 -3.99410528e-05
      -4.55758782e-05</_>
    <_>
      0. 0. -1.43904908e-05 -7.15926944e-05 -9.17393772e-05
      -9.19568411e-05 -8.85002592e-05 -3.77653450e-05 -5.04861709e-05
      -9.07883950e-05 -4.37539420e-05 8.79677245e-05 1.68520637e-04
      1.83773460e-04 1.48480205e-04 3.49474467e-05 -4.88891237e-05
      -6.27337795e-05 -1.22862939e-05 1.26598664e-07 0. 0.
      -5.39643406e-06 -5.43605747e-05 -1.02385311e-04 -1.23392572e-04
      -1.13572358e-04 -9.04748522e-05 -9.23158150e-05 -6.68856155e-05
      2.31964950e-05 1.03341437e-04 1.60797179e-04 1.70258150e-04
      1.54420733e-04 4.27008526e-05 -4.00457102e-05 -2.89495692e-05
      -1.85318754e-06 1.26598664e-07 0. 0. -3.59762282e-07
      -3.92555012e-05 -1.17847594e-04 -1.69314168e-04 -1.75535621e-04
      -1.50429245e-04 -7.31476757e-05 3.74746651e-06 2.08469028e-05
      4.74572735e-05 6.82311511e-05 9.53522831e-05 1.63407938e-04
      9.42841289e-05 8.35777064e-06 -1.43866578e-06 1.80616397e-07
      -2.74753518e-07 -4.07294465e-07 -1.52794613e-07 -2.55320242e-06
      -5.56787381e-05 -1.12153080e-04 -1.76928006e-04 -1.94962093e-04
      -1.07414133e-04 -8.59577426e-07 -3.82684811e-06 -5.21892362e-05
      -2.17813249e-05 1.41783667e-05 4.34465546e-05 1.02795399e-04
      1.26741419e-04 3.96234536e-05 -3.35149161e-06 -5.13729992e-06
      -4.38861343e-06 -4.83013491e-06 -1.72725493e-06 -5.04224727e-06
      -5.58460306e-05 -3.43917673e-05 -1.66567770e-05 -4.27924260e-06
      1.01655896e-04 1.87252328e-04 1.68851751e-04 6.73269315e-05
      3.95982279e-05 1.46678994e-05 -3.28188507e-05 -4.75505512e-05
      5.16017026e-05 3.99231249e-05 -4.26060842e-06 -7.14406087e-06
      -7.73321517e-06 -7.06549599e-06 -2.35489301e-06 -1.96588900e-07
      -8.69809173e-06 -1.88005724e-05 -1.41460669e-05 -1.64024295e-05
      9.28227746e-05 1.91621002e-04 1.96269975e-04 1.15274874e-04
      8.48164491e-05 -4.14643682e-06 -1.25232371e-04 -1.34609014e-04
      -3.19834980e-05 8.99450924e-07 -7.35679805e-06 -7.14406087e-06
      -8.40213488e-06 -7.11634857e-06 -2.49301547e-06 3.49895799e-07
      -5.36643893e-06 -5.30094876e-05 -7.98668625e-05 -1.05426414e-04
      -3.20206368e-08 8.80111329e-05 7.22981786e-05 3.71049464e-05
      7.09538508e-05 1.61295175e-05 -1.49525629e-04 -1.63596749e-04
      -1.14180053e-04 -6.08293376e-05 -1.59910924e-05 -8.94287223e-06
      -8.40213488e-06 -1.27893445e-05 -4.29856664e-06 1.32943569e-07
      -3.65584424e-06 -5.02143448e-05 -8.77047423e-05 -9.35799981e-05
      -3.76727330e-05 -3.48464368e-06 -3.90775358e-06 -5.07881341e-05
      -7.39870711e-06 -5.77643623e-05 -1.62121636e-04 -1.21031582e-04
      -8.38213382e-05 -8.18832050e-05 -6.03988083e-05 -2.10165417e-05
      -8.21180765e-06 -6.56395641e-05 -1.12561784e-05 1.67046565e-07
      -2.95604650e-07 -1.11189474e-05 -4.06896070e-05 -6.21874133e-05
      1.42870367e-05 5.50087425e-05 2.88977371e-05 -1.09877597e-04
      -1.70357234e-04 -1.88055259e-04 -1.35988928e-04 1.00348359e-06
      1.64396533e-05 -6.21084182e-05 -8.53085221e-05 -2.96796661e-05
      -7.76859997e-06 -1.13305439e-04 -2.88123210e-05 -1.67721694e-07
      8.82167370e-08 -2.54678662e-06 -4.52144814e-05 -1.20331671e-04
      -1.33234251e-04 -1.40548305e-04 -1.90589664e-04 -2.25723415e-04
      -2.09324644e-04 -1.46072765e-04 -6.62691673e-06 9.86553496e-05
      4.23329766e-05 -5.25264441e-05 -9.03299078e-05 -3.74419578e-05
      -7.00523969e-06 -1.96013571e-04 -9.37938239e-05 -4.79458549e-06
      1.45958595e-07 -7.55855899e-06 -8.61744193e-05 -1.62948476e-04
      -2.35370710e-04 -2.91006378e-04 -2.81696528e-04 -2.53013801e-04
      -1.74724526e-04 -5.32377380e-05 9.80879195e-05 1.48121937e-04
      6.58669815e-05 -5.01467293e-05 -9.14581979e-05 -5.21840921e-05
      -5.44885552e-06 -1.96310488e-04 -9.38433077e-05 -4.77854610e-06
      3.20788132e-07 -7.70339284e-06 -8.89149960e-05 -1.41909477e-04
      -1.24299360e-04 -1.44295947e-04 -1.62333687e-04 -2.18865534e-04
      -2.24395932e-04 -1.59443094e-04 -7.50489489e-05 1.61241951e-05
      3.61735511e-05 -5.11934668e-05 -7.91241255e-05 -3.33718490e-05
      -5.84862710e-06 -8.87889546e-05 -2.60376037e-05 -2.29091683e-07
      4.09004883e-07 -1.32984323e-05 -7.95573724e-05 -1.13132926e-04
      -5.64698967e-05 -3.89815432e-05 -5.29400786e-05 -9.94245274e-05
      -1.00874357e-04 -1.40010889e-04 -1.95975212e-04 -1.62540833e-04
      -1.45611353e-04 -1.48243620e-04 -6.05713140e-05 -1.40702323e-05
      -7.51119978e-06 -1.36752706e-05 -6.80749099e-06 -7.61605634e-07
      1.35362157e-07 -2.34825602e-05 -8.29454220e-05 -8.61130029e-05
      -2.54538299e-05 9.20000093e-06 2.55925206e-05 -4.87425386e-05
      -2.62506492e-05 -2.00555096e-05 -1.43569632e-04 -2.25781245e-04
      -2.35301224e-04 -2.44201190e-04 -8.15879393e-05 -7.06729861e-06
      -7.92983064e-06 -8.38758660e-06 -7.60959892e-06 -2.14091187e-06
      -1.50649407e-06 -3.04667701e-05 -6.83515609e-05 -8.02442519e-05
      -5.50365730e-05 -2.58300406e-05 1.87454079e-05 -5.31960541e-06
      2.85231508e-05 2.03033051e-05 -8.46082476e-05 -2.39484478e-04
      -2.88032345e-04 -3.05540423e-04 -1.36012881e-04 -1.52937537e-05
      -7.64498418e-06 -8.41966539e-06 -7.83801534e-06 -2.29073544e-06
      -8.34756156e-06 -4.64175828e-05 -6.93020775e-05 -7.03271435e-05
      -2.42641017e-05 -6.53604366e-06 2.26964330e-05 2.53616709e-05
      5.82683278e-05 1.35916807e-05 -1.27615524e-04 -2.59349414e-04
      -3.34918470e-04 -3.49586073e-04 -1.94125314e-04 -4.47370767e-05
      -9.29356702e-06 -8.45221803e-06 -7.02776470e-06 -1.63167556e-06
      -1.60111613e-05 -6.00393359e-05 -7.51674961e-05 -7.43228811e-05
      -1.75308560e-05 1.79895469e-05 3.43557913e-05 6.71271337e-05
      7.40288015e-05 -7.05862476e-05 -2.09987789e-04 -2.63939815e-04
      -3.22640699e-04 -2.72593141e-04 -1.63786870e-04 -7.79716138e-05
      -1.43462776e-05 -6.25440452e-06 -3.09604388e-06 -9.88888473e-07
      -2.27117780e-05 -6.98300355e-05 -1.14001727e-04 -1.26199098e-04
      -1.29922511e-04 -7.14950147e-05 -6.16624311e-05 -4.54772235e-05
      -7.29892563e-05 -1.93118452e-04 -2.17612978e-04 -2.18185771e-04
      -2.30124613e-04 -1.57687900e-04 -1.04884835e-04 -8.66975824e-05
      -2.91302131e-05 -1.27094859e-06 -2.99410203e-07 -1.61243042e-05
      -1.04258521e-04 -1.21982564e-04 -1.14518356e-04 -1.51062195e-04
      -1.37550931e-04 -8.54360915e-05 -6.99708035e-05 -1.25803243e-04
      -1.56908907e-04 -1.44048725e-04 -8.01886708e-05 -3.93417176e-05
      -5.48565731e-05 -7.80190458e-05 -9.59999888e-05 -9.25296627e-05
      -3.54609110e-05 0. 1.12275851e-08 -2.97010592e-05 -1.37391093e-04
      -1.93865999e-04 -1.87454585e-04 -1.91236089e-04 -1.46654653e-04
      -1.28853557e-04 -1.26149680e-04 -1.19346696e-04 -6.27884292e-05
      -4.72753300e-06 1.17966720e-05 4.92923718e-05 3.79743869e-05
      -5.12007464e-05 -9.42547194e-05 -8.44386595e-05 -2.53965954e-05</_>
    <_>
      0. 0. 0. 0. 0. 2.02461354e-08 3.64430463e-07 1.87276760e-06
      2.58138243e-06 2.33517153e-06 1.34904112e-05 3.31369338e-05
      5.02388248e-05 7.87945537e-05 7.91571510e-05 2.80797030e-05
      4.18594391e-06 0. 0. 0. 0. 0. 0. 0. 1.01230677e-08 2.12584425e-07
      1.31599882e-06 2.32830575e-06 2.86319982e-06 1.24752405e-05
      5.00270762e-05 6.46659901e-05 5.43407186e-05 7.21100951e-05
      7.90064660e-05 2.40791524e-05 1.47495973e-06 0. 0. 0. 0. 0. 0. 0.
      3.13815121e-07 1.46784487e-06 2.32830575e-06 3.99046894e-06
      2.22603921e-05 6.53677344e-05 1.00422731e-04 8.30976496e-05
      5.69368494e-05 3.50168593e-05 6.25828688e-05 3.50068658e-05
      7.03817886e-06 0. 0. 0. 4.17035153e-06 9.87714884e-07
      1.09746097e-07 1.09746088e-06 1.31808360e-06 2.37892095e-06
      3.96368841e-06 1.74409561e-05 7.86970850e-05 1.17302596e-04
      7.87616809e-05 5.04557211e-05 4.61214368e-05 -2.23547704e-06
      -2.69348311e-06 3.10376199e-05 1.31589513e-05 0. 0. 0.
      1.96445508e-05 7.68222617e-06 4.60933597e-06 1.42669924e-05
      6.84588076e-06 2.41941325e-06 1.58339099e-05 5.66837480e-05
      1.07423315e-04 8.53574238e-05 2.02493720e-05 -2.47374419e-06
      -1.30683820e-05 -5.42688904e-05 -7.11786561e-05 7.62779734e-07
      1.52288185e-05 0. 0. 0. 2.68877920e-05 2.19492194e-05
      2.15102336e-05 2.52416012e-05 9.53891777e-06 2.22707490e-06
      2.07292323e-05 6.24618187e-05 7.26538856e-05 1.81527757e-05
      -3.99616147e-05 -2.98225441e-05 -3.28436654e-05 -7.25858335e-05
      -8.78822611e-05 -1.75181030e-05 8.71419979e-06 -8.63381970e-08 0.
      0. 2.79852538e-05 2.62293161e-05 2.62293161e-05 2.66683001e-05
      1.16666706e-05 1.15772218e-06 1.64864305e-05 2.76667433e-05
      -1.76263984e-05 -6.97954820e-05 -9.67860033e-05 -4.20871984e-05
      -3.42250787e-05 -7.44055214e-05 -8.65100592e-05 -2.52346617e-05
      -6.71520411e-06 -9.49720175e-07 0. 0. 2.79852538e-05
      2.61195710e-05 2.28271874e-05 2.06322657e-05 1.03163093e-05
      -1.20681500e-06 -1.22507190e-05 -5.63972826e-05 -9.71526242e-05
      -1.27092484e-04 -1.14126728e-04 -5.18516208e-05 -4.14510359e-05
      -8.37766929e-05 -6.73347968e-05 -4.24822019e-06 -7.78135745e-06
      -1.38141115e-06 0. 2.19492176e-06 2.79852538e-05 2.68877920e-05
      1.37182615e-05 4.38984353e-06 2.52739198e-07 -2.31837676e-05
      -8.38081032e-05 -1.41465382e-04 -1.65296864e-04 -1.24409722e-04
      -5.28269229e-05 -3.92654110e-05 -7.14132038e-05 -9.89775945e-05
      -4.51145861e-05 1.19840588e-05 7.18152137e-07 -1.38141115e-06
      9.87714884e-07 1.08648628e-05 2.79852538e-05 2.74365229e-05
      2.07420126e-05 5.75713284e-06 -2.14124539e-05 -8.47591873e-05
      -1.50885331e-04 -1.85544006e-04 -1.67190519e-04 -8.40697539e-05
      -2.75399416e-05 -4.03582089e-05 -8.11930950e-05 -8.53540114e-05
      -3.97802032e-05 2.98157897e-06 -1.89047068e-06 -1.38141115e-06
      6.47501929e-06 2.32661714e-05 2.73267779e-05 2.76255469e-05
      2.32087186e-05 -8.38372307e-06 -8.52080993e-05 -1.65991805e-04
      -2.07068064e-04 -1.69261097e-04 -1.09502638e-04 -4.58834802e-05
      -1.96499495e-05 -4.11603032e-05 -7.98337205e-05 -8.31043581e-05
      -4.75043707e-05 -3.38706104e-06 -6.16163447e-07 -9.26312282e-07
      9.43816394e-06 2.63390630e-05 2.07420126e-05 2.21483224e-05
      -2.28271820e-05 -9.91525085e-05 -1.69155552e-04 -1.99634393e-04
      -2.02815907e-04 -1.21903286e-04 -8.12532890e-05 -4.35035545e-05
      -2.69287611e-05 -5.09944148e-05 -8.39872228e-05 -1.04101098e-04
      -8.22702132e-05 -3.37454549e-05 -4.05008768e-06 -1.94969843e-07
      1.48174868e-05 2.73269543e-05 1.62329943e-05 7.25328619e-06
      -9.11071911e-05 -1.75697831e-04 -1.95201472e-04 -2.00218477e-04
      -1.89890241e-04 -1.44970385e-04 -1.20515484e-04 -8.58924977e-05
      -7.38909512e-05 -8.36307736e-05 -8.70587537e-05 -1.10850051e-04
      -1.04134888e-04 -9.83835489e-05 -6.21888321e-05 -2.29431353e-05
      2.76427636e-06 2.60705092e-05 -1.13353117e-05 -3.24249304e-05
      -1.24064114e-04 -1.87851256e-04 -1.93708081e-04 -1.94617358e-04
      -2.00640890e-04 -1.89305269e-04 -1.75954352e-04 -1.24287573e-04
      -1.11288951e-04 -1.01629848e-04 -8.73299578e-05 -1.10850051e-04
      -1.07293781e-04 -1.47354076e-04 -1.70934378e-04 -1.23793507e-04
      -3.24649955e-05 2.20848342e-05 -1.40099801e-05 -3.93421651e-05
      -9.55131472e-05 -1.46079998e-04 -1.36652146e-04 -1.30605462e-04
      -1.36317671e-04 -1.16546711e-04 -1.02058482e-04 -5.66772651e-05
      -5.79716689e-05 -8.76048725e-05 -8.69491851e-05 -1.09850203e-04
      -9.58923483e-05 -1.41512821e-04 -1.73585548e-04 -1.04889121e-04
      -1.38745809e-05 2.62962349e-05 -4.59117427e-06 -1.88419381e-05
      -3.99501150e-05 -5.82632783e-05 -3.82514700e-05 -4.67889186e-05
      -5.60970693e-05 -5.36340813e-05 -4.70763807e-05 -1.33751364e-05
      -8.51057121e-06 -3.66927561e-05 -7.83639989e-05 -1.09680870e-04
      -7.81449780e-05 -8.76381673e-05 -8.68982170e-05 -3.76539283e-05
      -2.12257873e-06 2.61414498e-05 -1.44507085e-05 -1.42193967e-05
      -1.50282483e-06 2.99676503e-06 1.55088935e-06 -1.68740007e-05
      -2.44538460e-05 -2.29540237e-05 -1.84857363e-05 1.42691306e-05
      1.82997392e-05 -7.30698503e-06 -6.66533451e-05 -1.09664725e-04
      -6.83316466e-05 -4.42243036e-05 -3.33880089e-05 -2.21256341e-05
      -7.39778488e-06 2.32308867e-05 -8.28846714e-06 -1.61935859e-05
      -9.50518552e-06 4.76180639e-06 4.32282195e-06 -1.25780762e-05
      -2.17445249e-05 -2.02447045e-05 -1.57764171e-05 1.88411068e-05
      2.30409260e-05 1.96787478e-05 -2.23451916e-05 -6.68062639e-05
      -2.96157395e-05 -2.36355008e-05 -2.89962081e-05 -2.26736593e-05
      -1.19779470e-05 1.91994550e-05 -1.89944035e-06 -1.19776014e-05
      -1.08513123e-05 5.70423299e-06 6.80169387e-06 -2.99488192e-06
      -1.58121256e-05 -1.67911749e-05 -9.78871958e-06 2.01840376e-05
      2.80046061e-05 5.16289438e-05 5.89041847e-05 3.53907490e-05
      6.53143725e-05 2.40863028e-05 -1.88161775e-05 -2.07443991e-05
      -1.05539584e-05 1.97600621e-05 -1.72676394e-07 -1.90826154e-06
      6.82732025e-06 2.00904833e-05 2.10781982e-05 1.40252741e-05
      -1.53562132e-06 -3.06340212e-06 1.65252845e-06 1.02111453e-05
      2.14379052e-05 5.93847908e-05 7.79465263e-05 7.04751219e-05
      8.90778465e-05 4.39589239e-05 2.22102040e-06 -6.90705610e-06
      -1.23672589e-06 2.05298129e-05</_>
    <_>
      0. 0. 0. 0. 0. -3.37659162e-06 -3.24493703e-05 -5.22526625e-06
      1.69869236e-05 -8.24959352e-06 -4.73652144e-05 -1.37505003e-05
      5.11712497e-05 1.15970724e-04 1.25152903e-04 1.01538593e-04
      7.15324059e-05 1.62574888e-05 3.70976431e-06 0. 0. 0. 0. 0.
      3.17316989e-07 2.65243102e-06 -2.62157232e-06 9.05399793e-06
      1.77171823e-05 -1.85197860e-06 -2.70290002e-05 4.66733327e-05
      1.06344924e-04 1.16450436e-04 1.03092832e-04 8.07912074e-05
      4.30124128e-05 4.15152499e-06 2.88537217e-06 0. 0. 0. 0. 0.
      9.83682639e-06 4.19997377e-05 2.73298483e-05 1.55330054e-05
      2.73959140e-05 2.40401605e-05 1.67952658e-05 9.68582463e-05
      1.25960432e-04 7.30109532e-05 4.58906288e-05 5.32227168e-05
      1.53302735e-05 -1.13886608e-05 2.45625620e-06 0. 0. 0. 0. 0.
      2.41160906e-05 6.39079881e-05 4.23821439e-06 -6.70717236e-06
      3.58922371e-05 2.43942941e-05 -4.47711427e-05 -3.64029074e-05
      -1.70370167e-05 -7.05203856e-05 -9.85171864e-05 -9.48529996e-05
      -9.78566386e-05 -4.01104007e-05 -6.52133963e-07 0. 0. 0. 0. 0.
      2.53853595e-05 5.47197778e-05 -4.86975841e-05 -7.11855246e-05
      -1.90615228e-05 -9.46861110e-06 -9.15029304e-05 -6.77378121e-05
      -4.42043638e-05 -7.21739489e-05 -7.23314661e-05 -7.64704018e-05
      -6.56064294e-05 -2.63466663e-05 1.60418051e-06 0. 0. 0. 0. 0.
      2.37987751e-05 6.01437132e-05 -5.29522222e-05 -9.25416607e-05
      -2.18142632e-05 6.47640991e-05 4.43786957e-05 5.62169043e-05
      5.02880175e-05 2.35583157e-05 6.27429472e-05 8.13373117e-05
      6.46797926e-05 1.02607037e-05 3.91586218e-06 0. 0. 0. 0. 0.
      7.78806771e-06 -6.22566085e-06 -1.38609947e-04 -1.20845143e-04
      -6.32603696e-05 5.56378945e-05 6.74432813e-05 7.85341617e-05
      7.99884147e-05 8.17733453e-05 1.26237108e-04 1.31264605e-04
      7.59111063e-05 1.70322182e-05 4.12196005e-06 0. 0. 0. 0. 0.
      -4.48738047e-06 -1.01117563e-04 -2.13648585e-04 -1.69174353e-04
      -1.14436050e-04 2.73238038e-05 4.50764746e-05 6.89724548e-05
      7.92343199e-05 1.00287914e-04 1.42325560e-04 1.31976049e-04
      6.39571590e-05 1.48877361e-05 4.12196005e-06 0. 0. 0. 0. 0.
      -1.16742940e-05 -1.62566852e-04 -2.70342978e-04 -2.33333150e-04
      -1.30683009e-04 4.14383021e-06 1.62250471e-05 4.39101386e-05
      7.05461935e-05 8.08746554e-05 1.25286475e-04 1.34883463e-04
      8.40697903e-05 1.83189077e-05 4.12196005e-06 0. 0. 0. 0. 0.
      -1.18855514e-05 -1.61964781e-04 -2.90940632e-04 -2.53355625e-04
      -1.82387637e-04 -1.12044872e-04 -1.13321308e-04 -9.28724403e-05
      -4.89369595e-05 -2.10006292e-05 6.86778221e-05 1.12031346e-04
      6.04297747e-05 1.38126425e-05 3.29756813e-06 0. 0. 0. 0. 0.
      -1.69019586e-05 -1.94832668e-04 -3.03797162e-04 -2.35674146e-04
      -1.79327777e-04 -1.81008654e-04 -1.64141806e-04 -1.67995982e-04
      -2.11231658e-04 -1.81988929e-04 -9.92342830e-05 -2.76497030e-05
      4.75766137e-06 1.00218431e-05 3.29756813e-06 0. 0. 0. 0. 0.
      -1.77469246e-05 -1.61308519e-04 -2.24911200e-04 -1.36782852e-04
      -5.26612748e-05 -6.22545849e-05 -7.21259858e-05 -1.06651583e-04
      -1.99452843e-04 -2.01874689e-04 -1.66444544e-04 -1.69212100e-04
      -1.38298841e-04 -2.53015769e-05 2.66235429e-06 0. 0. 0. 0. 0.
      -2.81116604e-06 -2.51285564e-05 -3.04858968e-05 2.43100294e-05
      6.18688719e-05 6.26288820e-05 3.27826056e-05 2.07966350e-05
      -5.15688953e-05 -1.32789806e-04 -1.60860232e-04 -1.76976566e-04
      -2.12095445e-04 -9.41535909e-05 -5.88918419e-06 0. 0. 0. 0. 0. 0.
      0. 5.07707182e-06 5.55304723e-05 8.39828645e-05 8.34288221e-05
      5.25822325e-05 6.66707783e-05 7.16134600e-05 1.65129622e-05
      -1.21961435e-04 -1.75117078e-04 -2.12116909e-04 -1.18248317e-04
      -1.53435576e-05 0. 0. 0. 0. 0. 0. 0. 5.07707182e-06 5.55304723e-05
      8.51358636e-05 8.45001341e-05 5.20920621e-05 6.78567376e-05
      7.80314513e-05 6.13552475e-05 -9.14879129e-05 -1.72747401e-04
      -2.21124923e-04 -1.14353854e-04 -1.82012463e-05 0. 0. 0. 0. 0. 0.
      0. 5.07707182e-06 5.55304723e-05 8.51358636e-05 8.45001341e-05
      5.20920621e-05 6.78591023e-05 7.13635673e-05 2.19619415e-05
      -1.15655748e-04 -1.41263285e-04 -1.51994362e-04 -8.85935151e-05
      -1.80228326e-05 0. 0. 0. 0. -3.99439728e-07 -3.41497048e-06
      -1.41777173e-06 5.07707182e-06 5.55304723e-05 8.65771217e-05
      8.59413849e-05 4.89435224e-05 5.33350103e-05 8.28319685e-07
      -8.87828428e-05 -1.39812822e-04 -1.21233075e-04 -5.07175428e-05
      -4.19935641e-05 -1.01511114e-05 0. 0. 0. 0. -6.12957547e-06
      -5.21491529e-05 -4.63856813e-05 -5.34961509e-05 1.60605432e-05
      3.72754948e-05 2.56100247e-05 -3.33718453e-05 -7.59125614e-05
      -1.04928600e-04 -1.52240027e-04 -1.48511681e-04 -8.13321312e-05
      -3.61264320e-05 -3.54747244e-05 -5.91686785e-06 0. 0. 0. 0.
      -7.14790713e-06 -6.85656487e-05 -7.60049006e-05 -1.01646088e-04
      -4.23250422e-05 -4.01056923e-06 5.76487901e-06 -4.92299805e-05
      -6.54174000e-05 -7.35773647e-05 -1.06172731e-04 -5.02178482e-05
      3.61430793e-05 9.49982586e-06 -1.05161771e-05 -2.23017977e-07 0.
      0. 0. 0. -1.41777173e-06 -1.67500075e-05 -5.00676724e-05
      -1.42588338e-04 -8.60716464e-05 1.19185406e-05 3.81553073e-05
      -3.79636526e-06 -5.38907489e-06 -1.41011878e-05 9.07011145e-06
      6.84391343e-05 7.03713740e-05 2.29343404e-05 9.45644842e-06
      3.09147026e-06 0.</_>
    <_>
      0. 0. 7.47870217e-07 3.72065415e-06 4.76767264e-06 4.45164005e-06
      1.29131490e-06 -1.55297778e-06 -1.41942783e-05 -2.02102365e-05
      -1.90413630e-05 -1.63331169e-05 -4.59383728e-06 4.59831517e-06
      5.64772427e-06 4.91434776e-06 -8.10774225e-07 -3.88531844e-05
      -1.43295247e-05 0. 0. 0. 1.04685396e-05 2.54307779e-05
      7.78396225e-06 -1.57201328e-06 -9.52475148e-06 -7.22303776e-06
      -9.91872184e-06 -1.29770624e-05 -9.15058808e-06 -7.79747279e-06
      -7.12214751e-06 2.55761347e-06 7.66862831e-06 3.96729274e-06
      9.34253785e-06 -5.12251245e-06 -3.39383496e-06 0. 0. 0.
      2.03466952e-05 5.30863654e-05 5.00045244e-05 5.60860972e-05
      2.29101188e-05 -8.81529832e-06 -9.97008465e-06 1.12410919e-06
      1.22986767e-05 1.80040679e-05 1.07527376e-05 1.07973619e-05
      3.21413390e-05 1.97674308e-05 2.19985432e-05 3.50725190e-06
      -3.32913010e-06 -1.59466560e-06 -1.86044315e-06 -6.64443974e-07
      5.21459197e-06 4.54729634e-05 8.07715769e-05 4.43093631e-05
      -1.50600927e-05 -2.83379559e-05 -2.92703007e-05 -2.60025408e-05
      -4.12240615e-06 3.76653588e-06 1.34227605e-06 1.04062256e-05
      3.27638591e-05 5.61858869e-05 4.58119866e-05 1.95901684e-05
      -1.66890857e-08 -1.53212277e-05 -2.03319869e-05 -7.30888405e-06
      6.03589751e-06 6.80937519e-05 8.86346606e-05 -1.93303022e-05
      -5.86356582e-05 -6.79946743e-06 -4.68799881e-05 -7.22881377e-05
      -5.65771988e-05 -3.46116358e-05 -5.12001134e-05 -3.96740797e-05
      -8.54552491e-06 2.89168602e-05 6.55572367e-05 4.34706490e-05
      2.95455429e-05 -2.71348108e-06 -2.96342023e-05 -1.06311036e-05
      3.70317093e-06 4.28531712e-05 2.57888732e-05 -4.59946932e-05
      -5.23027811e-05 -3.83286351e-05 -7.19477030e-05 -7.79273469e-05
      -7.21483593e-05 -5.37444066e-05 -6.10922434e-05 -1.08526838e-04
      -1.18832861e-04 -6.64593172e-05 1.94367603e-05 5.20880276e-05
      4.00205827e-05 3.24552784e-05 -3.24935390e-05 -1.18606968e-05
      8.48603179e-08 8.36169056e-06 -1.75425266e-05 -1.89923321e-05
      -7.61297724e-06 -3.99322271e-05 -3.86144748e-05 -3.00302145e-05
      -4.18989257e-05 -3.18677703e-05 4.33914238e-06 -4.85477904e-05
      -7.22289187e-05 -1.20169345e-04 -3.52825300e-05 4.89328741e-05
      3.84260929e-05 4.03115555e-05 -3.68789188e-05 -1.62329452e-05
      -7.97332802e-07 4.68300277e-06 1.76065932e-05 1.70762833e-05
      2.58961136e-05 -4.19117941e-06 -4.20504693e-05 -6.64741019e-05
      -9.19251179e-05 -5.99381674e-05 -7.96526274e-06 -3.50314331e-05
      -3.59848382e-05 -9.59233876e-05 -3.20813961e-05 7.08436346e-06
      2.56049389e-05 4.03115555e-05 -3.02861918e-06 -1.98546149e-06
      -1.32888800e-07 1.51320364e-05 5.55361403e-05 2.84301659e-05
      -1.78228765e-05 -1.36119515e-05 -2.43239374e-05 -6.08574119e-05
      -1.21675643e-04 -1.31175664e-04 -6.47815978e-05 -3.41013474e-05
      -4.31139342e-05 -3.08792078e-05 4.65677949e-05 -4.94151755e-06
      1.58866460e-05 3.24552784e-05 3.88927110e-05 1.42630161e-05 0.
      3.56210558e-06 1.64058129e-05 -6.46900116e-06 -4.46145932e-05
      -7.22975892e-05 -1.09937195e-04 -1.19370387e-04 -1.29469219e-04
      -1.53317393e-04 -1.05676379e-04 -2.52192549e-05 1.34252023e-05
      5.26835174e-05 7.37725059e-05 -1.48922427e-05 -2.21999039e-06
      -4.55394485e-07 4.31117769e-05 1.28823622e-05 -4.32260066e-07 0.
      -2.07689322e-06 -2.72759171e-05 -8.09387857e-05 -1.69583640e-04
      -2.42306269e-04 -2.08165802e-04 -1.20560631e-04 -1.31744790e-04
      -1.35933835e-04 1.92995485e-05 1.12281981e-04 9.43782215e-05
      5.27931443e-05 -2.36479245e-05 -4.11180808e-05 -1.08756467e-05
      2.75962211e-05 3.31551314e-06 -8.64520132e-07 0. -2.74733657e-06
      -3.16575097e-05 -8.38884298e-05 -1.33051974e-04 -1.06382293e-04
      -5.29889039e-05 -5.85454691e-05 -1.83098164e-04 -1.61259784e-04
      -5.45046205e-05 -1.94052009e-05 1.96242618e-05 1.00770239e-05
      -5.58268839e-05 -4.85190540e-05 -2.20845614e-05 3.70222369e-06
      -5.05225717e-06 -7.50895992e-07 0. -1.24799571e-05 -5.90297277e-05
      -4.66666315e-05 1.88309241e-05 7.46802616e-05 5.95022939e-05
      -1.71973825e-05 -8.87303031e-05 -1.08839165e-04 -1.50957581e-04
      -1.72507323e-04 -1.70047279e-04 -1.54659516e-04 -7.61729461e-05
      -4.18055934e-05 -3.33550888e-05 -3.01595246e-05 -2.44152616e-05
      -4.65110816e-06 9.14942007e-07 -1.88362465e-05 -4.05842184e-05
      7.25051868e-05 1.28979766e-04 1.33375186e-04 8.72349046e-05
      4.14517417e-05 -6.48643345e-06 -7.68318787e-05 -1.76809102e-04
      -2.37580505e-04 -2.80618900e-04 -2.47067685e-04 -8.17720647e-05
      -3.42895146e-05 -3.38866448e-05 -3.44053551e-05 -3.13153214e-05
      -1.00995485e-05 5.54338612e-06 7.31408954e-06 6.20102437e-05
      1.20687422e-04 1.01637394e-04 1.08408807e-04 9.10996969e-05
      7.64632132e-05 8.83608720e-07 -8.08445911e-05 -1.97722562e-04
      -3.12488934e-04 -3.52297531e-04 -3.14250297e-04 -1.54111432e-04
      -4.85862111e-05 -3.38866448e-05 -3.38866448e-05 -3.16870864e-05
      -8.15799831e-06 2.00730065e-05 6.11559954e-05 1.00944053e-04
      1.24356942e-04 1.65087738e-04 1.57680362e-04 1.41535347e-04
      8.65629336e-05 1.50054721e-05 -9.10400195e-05 -2.31478363e-04
      -3.52033094e-04 -3.77333927e-04 -3.38167680e-04 -2.14599597e-04
      -8.53885431e-05 -3.57721074e-05 -3.36208650e-05 -2.76475384e-05
      1.05443960e-05 6.08784430e-05 8.13164006e-05 1.00747413e-04
      1.79036986e-04 2.21314622e-04 1.73567299e-04 1.43738886e-04
      1.06881344e-04 -1.39921476e-05 -1.48450446e-04 -2.45493895e-04
      -2.91928911e-04 -2.93628866e-04 -2.49578530e-04 -1.93424537e-04
      -1.11314177e-04 -3.63958316e-05 -2.30901023e-05 -9.59672980e-06
      3.86062675e-05 9.74616851e-05 9.23402549e-05 1.16286072e-04
      1.73086344e-04 1.68417406e-04 1.38689385e-04 1.11481058e-04
      5.58954853e-05 -4.24335849e-05 -1.37528303e-04 -1.44850957e-04
      -1.39364885e-04 -9.85658917e-05 -1.47463606e-05 -3.27965936e-05
      -6.40694852e-05 -5.59187583e-06 -3.28967053e-06 2.58133741e-06
      4.36198570e-05 1.06042178e-04 1.49876098e-04 1.56982409e-04
      1.53560744e-04 9.74015711e-05 1.42549679e-05 -4.12464578e-05
      -6.77822827e-05 -1.09671200e-04 -1.33265072e-04 -9.69498287e-05
      -1.50004635e-05 6.25961911e-05 1.18103031e-04 3.96430332e-05
      -4.18263226e-05 1.37321331e-05 0. 3.48398589e-06 3.72238719e-05
      8.24365925e-05 1.09438137e-04 1.16013638e-04 1.34036804e-04
      1.33961212e-05 -1.28486936e-04 -1.49303465e-04 -1.04644227e-04
      -1.16311821e-04 -1.19737742e-04 -1.00506921e-04 -1.17262762e-05
      5.14581880e-05 5.95993806e-05 1.15213343e-05 -4.61570235e-05
      1.82859785e-05</_>
    <_>
      0. 0. 4.53590928e-06 2.25661479e-05 2.91880460e-05 3.19042956e-05
      3.43519278e-05 4.52199311e-05 5.05406679e-05 5.05829958e-05
      3.56817327e-05 -1.46694983e-05 -3.09386633e-05 -4.16694857e-05
      -4.71950407e-05 -3.49750771e-05 1.19617198e-05 9.07181857e-06 0.
      0. 0. 0. 5.83686506e-06 3.10509458e-05 4.06843319e-05
      4.89543272e-05 5.42162998e-05 5.97024082e-05 6.25045650e-05
      6.27461341e-05 4.87311481e-05 -3.70575253e-06 -2.13267031e-05
      -2.53590842e-05 -2.81154280e-05 -1.97327099e-05 1.78115970e-05
      7.71291343e-06 -4.79465939e-07 -6.84951402e-08 0. 0.
      1.39382464e-05 4.75617016e-05 5.60937988e-05 6.47185734e-05
      6.72027672e-05 6.69094225e-05 6.81950405e-05 7.05645289e-05
      5.39104076e-05 4.79629034e-06 -1.54977079e-05 -1.45126141e-05
      3.75533455e-06 2.40692061e-05 3.15957659e-05 3.34195306e-06
      -2.26887073e-06 -8.49339699e-07 0. 0. 1.21291951e-05
      4.19277385e-05 5.12626721e-05 5.81279455e-05 5.62684145e-05
      5.71825258e-05 6.09050767e-05 5.36021616e-05 2.49842342e-05
      7.70621591e-06 2.65985022e-06 -5.10729978e-06 5.93976984e-06
      3.73334005e-05 3.93160954e-05 1.39538206e-05 1.30024273e-06
      -1.65923939e-06 0. 0. 1.11366744e-05 4.16548937e-05 4.98126828e-05
      4.85858727e-05 4.65038938e-05 4.87734833e-05 4.02023470e-05
      9.41285725e-06 -2.10882990e-05 -2.85263595e-05 -4.23344500e-05
      -4.58533104e-05 -3.56381279e-05 2.56883941e-05 4.37462731e-05
      2.51120327e-05 8.75940441e-06 2.58629416e-06 0. 0. 3.71222472e-06
      1.72263881e-05 2.05574433e-05 3.56943019e-05 7.52759588e-05
      7.62706622e-05 4.80629496e-05 7.59936347e-06 -4.41395787e-05
      -4.60414449e-05 -4.88959158e-05 -5.88723269e-05 -7.24405691e-05
      -1.77662569e-05 3.01811342e-05 3.38475584e-05 1.20287650e-05
      9.48797879e-06 0. 0. 0. 1.22820404e-06 8.26660835e-06
      4.26885454e-05 9.65483923e-05 7.38855379e-05 3.36691774e-05
      -9.66930020e-06 -5.65720766e-05 -4.46969898e-05 -2.28312510e-05
      -1.94961358e-05 -2.32303955e-05 -2.01441526e-05 4.71985459e-06
      3.19191968e-05 1.22176680e-05 1.09214061e-05 3.80295120e-07
      6.33825223e-08 0. 2.27252235e-06 1.98515590e-05 3.68402107e-05
      4.53171269e-05 2.31065951e-06 -3.31705887e-05 -8.61613225e-05
      -8.15207386e-05 -4.60496012e-05 -2.22374911e-05 -1.45867489e-05
      -1.28088013e-05 -1.12062962e-05 2.79455344e-06 3.13589007e-05
      1.22724641e-05 1.13049782e-05 4.69030647e-06 9.50737842e-07 0.
      4.29018201e-06 1.67426278e-05 4.90853427e-06 -4.34768190e-05
      -9.29141679e-05 -1.25057704e-04 -1.38483651e-04 -9.59002282e-05
      -5.66046801e-05 -2.67897231e-05 -1.44190362e-05 -2.62639496e-05
      -1.93760643e-05 1.67464550e-05 3.58006582e-05 1.21520570e-05
      1.03510174e-05 1.15990015e-05 3.80295137e-06 0. -1.27972123e-06
      -1.99735623e-05 -5.77496685e-05 -1.07316388e-04 -1.49630971e-04
      -1.43419224e-04 -1.09020868e-04 -6.51929076e-05 -4.48475439e-05
      -3.36928060e-05 -3.40278093e-05 -5.35481631e-05 -2.57243209e-05
      1.33733847e-05 2.62808771e-05 8.96489018e-06 4.32556772e-06
      1.41343025e-05 4.90414095e-06 -2.03256400e-06 -1.76613357e-05
      -6.02888867e-05 -1.08978580e-04 -1.54626046e-04 -1.42787016e-04
      -9.42116894e-05 -5.19155110e-05 -1.99500519e-05 -2.98964696e-05
      -7.81420677e-05 -8.17011532e-05 -7.67392121e-05 -3.00530028e-05
      4.44381067e-06 1.54388272e-05 2.49903064e-06 -3.99431912e-07
      1.05030795e-05 -2.06075083e-06 -3.10166215e-05 -6.82327154e-05
      -1.18077216e-04 -1.55980175e-04 -1.50942651e-04 -9.03353939e-05
      -3.25976471e-05 1.01886626e-05 6.54267160e-06 -6.26469046e-05
      -9.92596833e-05 -9.01481981e-05 -8.58774583e-05 -4.27508676e-05
      -3.08896438e-06 6.65932566e-06 -2.30200817e-06 -2.43147861e-06
      1.41751889e-06 -1.58308430e-05 -6.64563049e-05 -1.32164510e-04
      -1.67402861e-04 -1.69993320e-04 -1.21999030e-04 -5.46654701e-05
      1.42327565e-06 -1.19552874e-06 -4.93248044e-05 -8.72897508e-05
      -9.34832424e-05 -1.00119920e-04 -1.13330447e-04 -9.07063586e-05
      -3.64576954e-05 -1.76969588e-05 -9.30066653e-06 -3.92624906e-06
      -7.40447058e-06 -4.01434081e-05 -1.04593710e-04 -1.60433512e-04
      -1.64770288e-04 -1.34194124e-04 -7.26860017e-05 -4.02508849e-05
      -4.00278332e-05 -5.25862415e-05 -5.18401721e-05 -9.14339398e-05
      -1.06873209e-04 -1.22778816e-04 -1.38198811e-04 -1.48542851e-04
      -1.20284916e-04 -7.91083294e-05 -3.20820182e-05 -5.37707001e-06
      -1.54019890e-05 -6.62104212e-05 -1.26948755e-04 -1.32648143e-04
      -1.03274215e-04 -4.62438438e-05 -8.04124375e-06 7.44658450e-07
      -4.03967033e-06 6.42808845e-06 1.25603847e-05 -7.26261642e-05
      -1.11630914e-04 -1.37669209e-04 -1.57818475e-04 -1.69431907e-04
      -1.38934673e-04 -8.34360035e-05 -3.74273441e-05 -5.43546457e-06
      -4.10153189e-05 -7.47091981e-05 -8.75913975e-05 -6.79509176e-05
      -1.91211639e-05 2.84371890e-05 4.36183145e-05 5.47406416e-05
      5.89681913e-05 5.81240165e-05 3.71786882e-05 -2.06911936e-05
      -7.54012726e-05 -1.10790861e-04 -1.35031194e-04 -1.32260131e-04
      -1.15150302e-04 -8.95080520e-05 -5.68910655e-05 -8.07391825e-06
      -5.61854758e-05 -7.41990298e-05 -5.91808312e-05 -1.75475470e-05
      4.00529825e-05 5.82059911e-05 7.76112647e-05 8.38261331e-05
      7.59947143e-05 5.89947595e-05 3.06297734e-05 -2.16917470e-05
      -7.35940921e-05 -9.04636472e-05 -8.38864362e-05 -6.26431138e-05
      -7.24174752e-05 -8.06075186e-05 -6.30477007e-05 -1.20812028e-05
      -2.98088125e-05 -5.77817591e-05 -4.96003704e-05 8.16402189e-06
      6.20012579e-05 7.92526480e-05 9.34686032e-05 8.97871068e-05
      7.04958366e-05 4.93909756e-05 2.59737735e-05 -1.28382198e-05
      -3.83296901e-05 -3.37774618e-05 -2.65538711e-05 5.74702290e-06
      1.72065359e-06 -4.37478848e-05 -4.71626990e-05 -6.01409965e-06
      -6.46745912e-06 -3.37589227e-05 -3.03335019e-05 3.14031495e-05
      7.81778726e-05 8.73268145e-05 8.79336076e-05 6.14732344e-05
      4.01915386e-05 8.69705218e-06 -8.39611221e-06 -2.72182260e-05
      -2.52642440e-05 -3.99351075e-06 1.49567250e-05 3.79407866e-05
      2.98057384e-05 -1.58991097e-05 -1.37334191e-05 1.35033870e-05
      -6.30847353e-07 -1.08613528e-06 2.61619007e-05 8.11426871e-05
      9.97531170e-05 9.83913633e-05 1.01719284e-04 6.75526317e-05
      5.48707249e-05 3.65474261e-05 9.06082187e-06 -1.79251001e-05
      -2.14472348e-05 -1.98351572e-05 -1.81997548e-05 -3.91190451e-06
      2.87048206e-05 2.55435843e-05 2.04685148e-05 1.50135529e-05</_>
    <_>
      0. 0. 4.78937363e-06 2.38271350e-05 3.02772551e-05 2.61672576e-05
      1.03031743e-05 3.60772583e-06 1.14230979e-05 1.24000189e-05
      2.72114685e-05 3.24561806e-05 3.67817956e-05 3.07756054e-05
      2.71772369e-05 2.35230964e-05 2.57158335e-05 9.97795178e-06 0. 0.
      1.84170460e-07 9.20852301e-08 4.78937363e-06 2.38271350e-05
      2.96326016e-05 2.08969905e-05 1.04499895e-05 2.55627810e-06
      -1.45050171e-06 4.96332632e-07 1.18996686e-05 2.23674251e-05
      2.86559480e-05 2.70201235e-05 2.29300276e-05 8.06518983e-06
      1.14587174e-05 6.97451651e-06 0. 0. 1.10502276e-06 5.52511381e-07
      6.10645156e-06 1.90511200e-05 2.01682324e-05 2.71066201e-05
      1.92651296e-05 4.82084988e-06 1.95699909e-06 1.03219099e-05
      1.15376397e-05 1.95731900e-05 3.30244075e-05 3.26177360e-05
      2.44074417e-05 1.20672064e-06 -5.61702291e-06 -4.66832518e-07
      7.30866191e-07 0. 1.84170460e-07 9.20852301e-08 1.12980297e-06
      9.02783540e-06 5.34283572e-06 6.49415551e-06 -3.87964756e-05
      -4.83958866e-05 5.49557762e-06 1.51974209e-05 -2.44678176e-05
      -5.15243446e-05 -4.69243096e-05 -3.19059691e-05 -3.24010944e-05
      -4.48948194e-05 -4.18925702e-05 7.13135069e-06 1.56754941e-05
      1.61928938e-06 0. 0. 1.59339379e-06 1.62433953e-05 5.17426406e-06
      -1.55557500e-05 -7.37815499e-05 -6.05920250e-05 -1.35758710e-05
      2.90498360e-06 -3.72495269e-05 -7.07735380e-05 -6.62233506e-05
      -4.22968733e-05 -1.10962146e-05 5.80668666e-06 6.25573557e-06
      2.33275932e-05 3.91890389e-05 1.76322610e-05 0. 0. 1.16848878e-06
      1.10738310e-05 -8.85711415e-06 -2.27292476e-05 -5.25623364e-05
      -6.13209631e-05 -3.23419299e-05 4.02079713e-05 3.07521732e-05
      2.53033195e-05 2.81610191e-05 3.48336725e-05 4.64899567e-05
      6.33173986e-05 5.87688482e-05 4.00687240e-05 4.56999442e-05
      4.10219982e-05 0. 0. 1.06226253e-07 -2.72191619e-06
      -1.62129381e-05 -1.37428715e-05 -5.93924888e-05 -6.87730717e-05
      -2.69129396e-05 5.14249768e-05 6.46269109e-05 6.97873984e-05
      8.75866099e-05 1.04480110e-04 1.12034992e-04 8.80066073e-05
      6.83411636e-05 4.90648345e-05 4.58798640e-05 4.53698594e-05
      3.73929879e-06 6.23216465e-07 -6.37505877e-07 -1.12401722e-05
      -1.13347751e-05 -3.85378044e-05 -1.07971238e-04 -1.12365749e-04
      -6.70733934e-05 2.04757634e-05 4.48852807e-05 6.04681954e-05
      8.69561482e-05 1.16430652e-04 1.24846556e-04 9.50567992e-05
      6.41547376e-05 4.89212944e-05 4.57523638e-05 3.93773043e-05
      1.42556974e-05 3.81000405e-06 -1.82043243e-06 -1.67859744e-05
      -1.35572964e-05 -6.44886022e-05 -1.52056324e-04 -1.60225449e-04
      -1.24015118e-04 -4.20374636e-05 -1.92613188e-05 1.27943867e-05
      7.42332268e-05 1.13506110e-04 1.11822752e-04 9.20124003e-05
      7.59607283e-05 5.43024471e-05 4.37874260e-05 2.26618267e-05
      2.28386434e-05 8.07319520e-06 -1.48750746e-06 -2.06825844e-05
      -3.14372955e-05 -8.82098102e-05 -1.60320837e-04 -1.74316127e-04
      -1.55265676e-04 -1.08364104e-04 -6.51184455e-05 -2.93412268e-05
      1.64107860e-05 4.44372308e-05 6.70754744e-05 6.97454816e-05
      6.78876531e-05 5.03520896e-05 2.50701560e-05 -1.09280008e-05
      2.36884534e-05 8.49810021e-06 -1.31042771e-06 -1.77580787e-05
      -3.85462954e-05 -1.23222853e-04 -1.71888460e-04 -1.62456810e-04
      -1.47156403e-04 -1.20501543e-04 -6.15368772e-05 -3.91299109e-05
      -7.89604892e-05 -5.64305519e-05 -2.89377531e-05 -2.49140921e-05
      1.26898167e-05 2.35233583e-05 -1.09888888e-05 -3.07660084e-05
      1.94394033e-05 6.37357516e-06 -1.27501167e-07 -3.95253619e-06
      -1.79956351e-05 -8.17011678e-05 -1.10567067e-04 -1.00250312e-04
      -7.79570983e-05 -4.07577209e-05 -1.82786735e-05 -2.88130559e-05
      -5.27491356e-05 -5.89815172e-05 -8.30583085e-05 -9.41306862e-05
      -5.43055103e-05 -1.81680462e-05 -2.81835128e-05 -3.25127985e-05
      1.04101728e-05 2.01829880e-06 0. 0. -1.03168497e-06
      -6.93252878e-06 7.46739545e-07 2.30091355e-05 4.88072073e-05
      6.44932952e-05 6.44298416e-05 6.58543431e-05 4.03274571e-05
      -4.26276965e-05 -9.56345175e-05 -1.14509952e-04 -1.24687620e-04
      -6.76396230e-05 -3.30564653e-05 -3.06002803e-05 3.18678758e-06
      5.31131263e-07 0. 0. 7.87548743e-07 1.54883874e-05 4.83841686e-05
      6.67878194e-05 7.68585887e-05 9.74802097e-05 1.12596528e-04
      1.02191880e-04 6.23858286e-05 6.62999128e-06 -9.28753652e-05
      -1.52397959e-04 -1.64195037e-04 -7.72305211e-05 -2.15625078e-05
      -1.09651010e-05 0. 0. 0. 1.16322803e-06 1.14981722e-05
      4.54490109e-05 6.90104862e-05 8.95141420e-05 1.16561074e-04
      1.28608692e-04 1.33687761e-04 9.68094828e-05 4.51832530e-05
      -4.10610210e-06 -1.14313632e-04 -1.61710515e-04 -1.45129030e-04
      -4.59069888e-05 -4.61234140e-06 -1.27501167e-07 0. 0.
      -1.04479867e-07 7.63301978e-06 3.90085661e-05 6.53288225e-05
      9.04207918e-05 1.32046800e-04 1.42200442e-04 1.28245825e-04
      1.17843134e-04 8.36946056e-05 2.93590001e-05 -2.79789383e-05
      -1.27447478e-04 -1.55735295e-04 -1.26363564e-04 -2.91772449e-05
      -2.01232137e-06 9.20852301e-08 7.36681841e-07 -2.69164957e-07
      -4.20978631e-06 5.80292317e-06 3.99282508e-05 7.42522170e-05
      1.29002612e-04 1.51683111e-04 1.29281892e-04 1.15522613e-04
      9.57906523e-05 4.13894559e-05 -1.45737113e-05 -8.37564730e-05
      -1.26755142e-04 -1.32365109e-04 -7.25237696e-05 -1.04803567e-05
      1.67636244e-06 2.97082192e-06 7.36681841e-07 -6.13421889e-06
      -1.96663750e-05 3.17109561e-06 -6.52924791e-06 3.97887925e-05
      9.59749086e-05 1.00493853e-04 7.41613767e-05 5.84389345e-05
      3.70422531e-05 -1.58124985e-05 -4.98453592e-05 -7.13328773e-05
      -7.52892374e-05 -2.88257470e-05 3.77262186e-05 3.64321349e-05
      3.09711322e-05 3.14861827e-05 0. -4.46254126e-06 -1.74587803e-05
      9.91458364e-06 -1.61146236e-05 -2.79527649e-06 1.46048005e-05
      1.87365677e-05 4.14647639e-06 -8.70092299e-06 1.79755477e-06
      -4.90024968e-06 -2.40936824e-05 -3.09232091e-05 2.28548402e-06
      7.05164784e-05 8.73754034e-05 6.40865474e-05 4.73045184e-05
      4.58798640e-05 -3.06002812e-06 -1.14751060e-06 -1.35919879e-06
      1.57163613e-05 1.48642648e-05 3.38483114e-05 1.09579987e-05
      2.23509414e-06 2.10617727e-05 8.51961340e-06 1.41322244e-05
      2.26741176e-05 1.93032392e-05 2.83064801e-05 5.03911870e-05
      5.97085927e-05 6.10036986e-05 4.99648559e-05 3.56396340e-05
      3.47332607e-05</_>
    <_>
      0. 0. 1.33631656e-05 6.64817489e-05 8.51901787e-05 8.53825113e-05
      8.73058161e-05 8.90367883e-05 9.67300075e-05 1.00480451e-04
      7.83234645e-05 5.71761575e-06 -2.40481422e-05 -2.95805730e-05
      -2.73980713e-05 -5.24108555e-06 6.49795475e-05 7.81708077e-05
      2.83930149e-05 1.42709155e-06 0. 0. 5.01118711e-06 4.85882229e-05
      8.24463059e-05 9.40216705e-05 1.02939717e-04 1.06209336e-04
      1.09256827e-04 1.05624276e-04 7.95187952e-05 -5.82665393e-07
      -3.35101431e-05 -4.30544787e-05 -3.37551319e-05 1.17898617e-06
      5.50767327e-05 2.94605470e-05 3.67725534e-06 -4.01216127e-08 0. 0.
      3.34079147e-07 1.58833900e-05 5.56432606e-05 1.16246563e-04
      1.48143270e-04 1.64138692e-04 1.56485985e-04 1.40900913e-04
      1.11142341e-04 3.57593453e-05 -7.84714302e-06 -4.27816121e-05
      -2.26960583e-05 1.69757859e-05 1.42592016e-05 -1.00578873e-05
      -1.02848981e-05 -3.44683053e-06 0. 0. 4.80826202e-07
      1.21469511e-05 5.90059462e-05 1.30368891e-04 1.56170398e-04
      1.63626581e-04 1.50983455e-04 1.23431353e-04 6.96232601e-05
      4.23928577e-05 2.56084222e-05 -2.16274311e-05 -3.70876478e-05
      -2.01264993e-06 -1.03806624e-05 -1.41764804e-05 -1.38985106e-05
      -8.67267045e-06 0. 0. 9.61652404e-07 1.36702729e-05 5.49043107e-05
      1.21251323e-04 1.50959226e-04 1.37800904e-04 1.20904420e-04
      7.48450620e-05 3.23407548e-05 -1.22981555e-05 -2.76514056e-05
      -4.18665113e-05 -3.46164088e-05 2.44772546e-05 1.33186340e-05
      -8.91058244e-06 -1.41764804e-05 -1.06184616e-05 0. 0.
      9.61652376e-08 8.20425157e-06 8.32287114e-05 1.55610847e-04
      1.69341249e-04 1.44900492e-04 1.16042829e-04 6.01813517e-05
      -1.01562537e-05 -4.74042463e-05 -4.13760390e-05 -3.30414659e-05
      -2.28826848e-05 3.87453001e-05 4.67568207e-05 -2.74918852e-06
      -1.41764804e-05 -1.06184616e-05 1.69340785e-06 2.82234652e-07 0.
      6.53450934e-06 7.18724841e-05 1.16378098e-04 1.19624638e-04
      7.72685962e-05 3.38271166e-05 -2.84681992e-05 -8.02191644e-05
      -7.27482329e-05 -3.78914046e-05 -5.42322459e-06 3.80621009e-06
      7.09193046e-05 5.92220676e-05 2.08929350e-06 -1.25060851e-05
      -1.06184616e-05 6.52039444e-06 1.23725749e-06 0. 3.67487064e-06
      4.34728609e-05 6.29617280e-05 4.14059286e-05 -1.49160860e-05
      -4.79262526e-05 -1.12739595e-04 -8.17581677e-05 -5.93325494e-05
      -2.69432876e-05 -5.56779833e-06 -1.43665147e-06 7.02151956e-05
      6.25368193e-05 3.60601334e-05 -9.25017957e-07 -9.06182868e-06
      2.12043360e-05 5.19924060e-06 0. -2.72308370e-07 -5.42394173e-06
      -2.29614470e-05 -3.07756854e-05 -1.08761807e-04 -1.51840723e-04
      -1.51424625e-04 -6.53433235e-05 -2.99445588e-07 -4.45794512e-06
      -1.48524950e-05 -2.71624813e-05 3.08905110e-05 5.30323741e-05
      5.82231987e-05 7.70493079e-06 -7.11603752e-06 2.97233164e-05
      7.81107155e-06 -2.53585930e-09 -4.61749914e-06 -3.77391661e-05
      -7.69884427e-05 -1.04120692e-04 -1.47487328e-04 -1.17298296e-04
      -5.99185114e-05 -2.26326028e-05 4.23086294e-06 -1.85016961e-05
      -4.92698964e-05 -7.14647394e-05 -3.70703697e-06 3.63899126e-05
      6.25803877e-05 1.53882356e-05 -4.50260268e-06 4.33042915e-05
      1.58627390e-05 -3.26566214e-06 -3.01828622e-05 -1.07329135e-04
      -1.49207845e-04 -1.68837185e-04 -1.10545239e-04 3.97361464e-06
      3.21654734e-05 2.04463940e-05 1.14171089e-05 -4.17860065e-05
      -9.37977456e-05 -1.21329249e-04 -3.81779791e-05 3.73122020e-05
      6.57603960e-05 3.17581143e-05 -1.49589016e-06 3.91786816e-05
      1.03965849e-05 -4.55073277e-05 -1.30421540e-04 -2.18818896e-04
      -2.48910830e-04 -1.89492974e-04 -5.50679943e-05 3.19418496e-06
      1.55549114e-05 1.15532621e-05 2.12130162e-05 -8.89289731e-06
      -3.81666832e-05 -7.51017360e-05 -3.27316448e-05 6.71386442e-05
      7.27264487e-05 1.12826001e-05 -7.30339480e-06 6.65998914e-06
      -2.35410316e-05 -1.03142222e-04 -2.34445150e-04 -2.83988251e-04
      -2.55073304e-04 -1.83918222e-04 -9.10185190e-05 -6.42274681e-05
      -6.49593203e-05 -7.33295237e-05 -4.87130092e-05 -1.78823357e-05
      -7.96368568e-06 -2.21813170e-05 -1.23175714e-05 6.87751599e-05
      2.22813251e-05 -4.13643575e-05 -1.66478258e-05 -2.04649677e-05
      -6.53612806e-05 -1.75762892e-04 -2.80349690e-04 -2.83701898e-04
      -2.28936697e-04 -2.15835185e-04 -2.00734619e-04 -1.90820923e-04
      -1.40742370e-04 -9.67369706e-05 -1.09935034e-04 -5.74866972e-05
      -1.75685200e-05 -1.15046341e-05 -4.20280121e-05 -4.73115979e-05
      -8.85722111e-05 -8.95905468e-05 -2.85342030e-05 -3.76788885e-05
      -1.05483748e-04 -1.87570433e-04 -2.34847917e-04 -1.99601913e-04
      -1.63745412e-04 -1.52151886e-04 -1.10863199e-04 -9.00913437e-05
      -4.14242677e-05 -4.22905141e-05 -1.14565475e-04 -8.48523050e-05
      -3.48775902e-05 -4.52229642e-06 -2.43947470e-05 -1.47438077e-05
      -4.01374964e-05 -7.22857294e-05 -2.14808115e-05 -6.80509038e-05
      -1.18546028e-04 -1.41863726e-04 -1.19553224e-04 -5.12766201e-05
      -3.91154244e-05 -4.24689388e-05 -2.34254549e-05 -4.68275039e-06
      1.18089793e-06 1.00893694e-05 -3.27006783e-05 -6.05042806e-05
      -2.33582850e-05 9.29207363e-06 1.97954578e-05 4.91771207e-05
      1.04401488e-05 -6.39848586e-05 -1.99134574e-05 -8.06968819e-05
      -1.07509019e-04 -1.10273540e-04 -5.70046177e-05 5.41168447e-06
      8.10991514e-06 7.99229656e-06 1.43001780e-05 1.24011067e-05
      1.23802647e-05 -2.49026084e-06 -4.06121899e-06 -6.52504423e-06
      -1.07856886e-06 9.50061985e-06 4.01462385e-05 7.15447313e-05
      2.09801292e-05 -3.10641954e-05 -1.59044084e-05 -4.19391363e-05
      -8.69363357e-05 -1.09781351e-04 -6.51106457e-05 6.31298826e-06
      2.37545901e-05 2.86045488e-05 4.96425964e-05 4.72080101e-05
      5.06104261e-05 3.93523151e-05 5.34168867e-05 5.93510886e-05
      3.40861516e-05 2.16133722e-05 3.12706870e-05 8.88538307e-06
      -3.24335051e-05 -3.02483131e-05 -6.42113446e-06 -9.61105252e-06
      -6.11612413e-05 -9.13454060e-05 -4.10432294e-05 -1.97043119e-05
      -9.15364035e-06 1.26681507e-05 4.74510307e-05 8.63180394e-05
      7.61009214e-05 7.14424677e-05 1.06668631e-04 1.04963721e-04
      6.26019610e-05 9.38834182e-06 1.70963176e-06 -1.95911125e-05
      -3.25991459e-05 -3.55550469e-06 1.67024609e-05 -8.73732063e-07
      -1.35428463e-05 -7.33097659e-06 5.19047826e-05 6.02434557e-05
      6.99519587e-05 8.73117751e-05 1.08316497e-04 1.56509283e-04
      1.38476200e-04 9.53466442e-05 8.73646422e-05 5.92681608e-05
      3.38824029e-05 -2.29308098e-05 -3.26650552e-05 2.44542971e-05
      4.54042165e-05 4.74143453e-05 1.89187649e-05</_>
    <_>
      0. 0. 5.97312692e-06 2.97163060e-05 3.76401367e-05 2.27191813e-05
      -2.00342583e-05 -3.00484007e-05 -1.38951491e-05 5.57835676e-07
      1.72767534e-06 1.00272255e-05 1.42935169e-05 2.01740986e-05
      2.29725720e-05 3.33872886e-05 4.17039810e-05 3.78134609e-05
      9.51791299e-06 1.21513054e-07 0. 0. 2.23992242e-06 2.21492228e-05
      3.31027077e-05 7.16292607e-06 -2.02693591e-05 -1.39644408e-05
      -2.31621561e-06 4.08268716e-06 1.09231296e-05 2.03888285e-05
      7.80739356e-06 -8.35764331e-06 -2.44389030e-05 -2.62184640e-05
      -1.07890064e-05 2.76062815e-06 1.33977539e-06 2.02521750e-08 0. 0.
      1.49328173e-07 1.37366233e-05 2.11195875e-05 1.88629001e-05
      2.76484679e-05 5.13961895e-05 6.30643481e-05 8.17452237e-05
      1.20176774e-04 1.16576790e-04 7.69640756e-05 -6.41873476e-06
      -6.51080700e-05 -7.09124215e-05 -6.31959483e-05 -1.44230507e-05
      3.23826362e-06 1.38099904e-06 1.61116554e-06 5.75416266e-07
      6.13039219e-07 1.68996303e-05 2.20088932e-05 4.85616401e-05
      6.62883031e-05 1.08006563e-04 1.13884678e-04 1.20233723e-04
      1.03274419e-04 5.13440245e-05 2.98522373e-05 -2.74239228e-05
      -1.19953824e-04 -1.90430161e-04 -1.62766592e-04 -2.01944367e-05
      2.11755396e-05 1.55362395e-05 1.76077374e-05 6.32957926e-06
      1.22607844e-06 1.16545543e-05 -5.41003055e-06 -4.26075239e-05
      -9.41513499e-05 -9.67216911e-05 -5.17154949e-05 -1.92578154e-05
      -2.62663561e-05 -2.21401551e-05 3.37688653e-05 6.79761797e-05
      2.46112304e-05 -9.65711661e-05 -1.20619654e-04 -2.18929727e-05
      2.70570381e-05 2.69845932e-05 2.56635667e-05 9.20666025e-06
      1.22607844e-07 -3.10074984e-06 -2.69148622e-05 -7.56887966e-05
      -1.55087779e-04 -2.03758682e-04 -1.19577911e-04 -1.64552475e-05
      -9.04992362e-07 2.22197796e-05 1.23193662e-04 2.07108504e-04
      2.03620817e-04 1.17409698e-04 4.77658468e-05 1.67899234e-05
      2.77891795e-05 2.87465155e-05 2.58937325e-05 9.89715954e-06
      1.15083253e-07 -1.23190084e-05 -4.43710887e-05 -9.59701574e-05
      -1.97731657e-04 -2.42580747e-04 -1.70844520e-04 -1.16987558e-05
      4.88317673e-05 9.20255188e-05 1.90641047e-04 3.05581023e-04
      3.17946047e-04 2.49164179e-04 1.33451453e-04 4.67708524e-05
      3.02051994e-05 2.79293945e-05 2.70244600e-05 1.30394183e-05
      -4.05865677e-07 -2.73387323e-05 -6.95901763e-05 -1.74851739e-04
      -2.57013482e-04 -2.72818317e-04 -2.14437823e-04 -1.78637965e-05
      5.75921113e-05 1.24042417e-04 2.43228482e-04 3.24752385e-04
      3.04478192e-04 2.28964418e-04 1.32359142e-04 6.18981067e-05
      3.44795808e-05 1.68589268e-05 2.73134647e-05 6.41816814e-06
      -3.23398376e-06 -4.73010150e-05 -1.05960244e-04 -2.49524484e-04
      -2.97401362e-04 -2.99432490e-04 -2.13131250e-04 -3.56338132e-05
      8.00245471e-05 1.89271406e-04 2.84304668e-04 3.01745196e-04
      2.54380022e-04 1.75039604e-04 1.04369276e-04 6.61871309e-05
      3.51493582e-05 -4.92780282e-06 4.59069452e-05 7.71156829e-06
      -3.23410018e-06 -4.72444262e-05 -1.09068918e-04 -2.29677375e-04
      -2.47368007e-04 -1.81598763e-04 -1.01543221e-04 -1.05140525e-05
      4.84758057e-05 1.20223798e-04 1.48369509e-04 1.05242987e-04
      7.33603374e-05 6.51791488e-05 6.55399635e-05 5.74008591e-05
      1.69738705e-05 -2.58729069e-05 5.67931493e-05 1.38932810e-05
      -2.07776361e-06 -3.97548865e-05 -1.06570733e-04 -2.14984495e-04
      -1.91821629e-04 -8.17233667e-05 -3.05234535e-05 -2.06120512e-05
      1.51581128e-06 1.20083914e-05 -5.73238067e-05 -1.45814993e-04
      -1.68632687e-04 -1.06042673e-04 -2.47879761e-05 1.66170303e-05
      -1.49018124e-05 -4.81236457e-05 5.66740346e-05 1.38734285e-05
      -2.19273048e-07 -1.70250314e-05 -7.43463825e-05 -1.62133510e-04
      -1.45786908e-04 -5.41664413e-05 2.66863262e-05 5.91626849e-05
      9.89984255e-05 9.16648496e-05 8.87094757e-07 -6.42327213e-05
      -1.08917535e-04 -1.50806722e-04 -1.13628361e-04 -2.67370906e-05
      -2.60683009e-05 -4.04915882e-05 5.09714591e-05 1.36906283e-05
      5.75416266e-07 -3.80421216e-06 -1.73421122e-05 -1.58395596e-05
      1.15636585e-05 2.97492406e-05 3.96741452e-05 6.37098710e-05
      8.78886131e-05 8.43017988e-05 6.33706877e-05 1.09485909e-05
      -2.64247337e-05 -5.75275662e-05 -1.14059971e-04 -7.46835431e-05
      -2.91590422e-05 -2.55189825e-05 3.15472935e-05 2.18490513e-05
      4.02791375e-06 -2.59981789e-07 5.04127138e-06 2.34683412e-05
      3.26328627e-05 3.55597149e-05 3.61930070e-05 3.86451648e-05
      5.30345496e-05 6.30602881e-05 6.65464686e-05 5.70381089e-05
      -1.84849778e-05 -4.15679278e-05 -6.88456348e-05 -5.21057082e-05
      -1.17023483e-05 8.42321242e-06 2.93462308e-05 2.71281242e-05
      9.68573931e-06 1.96477708e-06 4.16808189e-06 1.19770830e-05
      2.41154030e-05 3.33723256e-05 3.69094378e-05 3.71966125e-05
      4.15812792e-05 4.49059989e-05 4.15967697e-05 4.60374249e-05
      -1.31089464e-05 -2.72211073e-05 -4.31461849e-05 -1.71985830e-05
      1.59059637e-05 2.89470427e-05 2.93462308e-05 2.80062577e-05
      1.68141196e-05 1.53230176e-05 1.83592947e-05 2.30309706e-05
      2.84980961e-05 2.49990935e-05 2.92772456e-05 2.87087805e-05
      4.20298602e-05 4.43499048e-05 3.91475151e-05 4.57499373e-05
      3.86344709e-06 2.43633963e-06 1.74075340e-05 2.02554711e-05
      2.60142751e-05 3.00928714e-05 2.91160632e-05 2.34999279e-05
      5.07946834e-06 -1.45902698e-06 1.60395502e-05 4.54383699e-05
      4.43056306e-05 3.41164086e-05 3.96222022e-05 3.93408664e-05
      3.21275729e-05 4.55086847e-05 6.10928982e-05 2.82561159e-05
      3.50053847e-06 -2.96945863e-08 4.41401098e-05 4.97069341e-05
      4.90082894e-05 3.21834668e-05 2.15205691e-05 -4.95175357e-07
      -3.47558889e-05 -8.66843311e-06 7.70211318e-06 1.68497882e-05
      1.36663939e-05 1.84972250e-05 3.39466897e-05 3.78709192e-05
      1.26793184e-05 2.45382125e-05 5.38601307e-05 1.86809866e-05
      -1.49553698e-05 -4.43557510e-05 5.09020037e-06 3.81613536e-05
      5.90593190e-05 3.83059196e-05 4.16326384e-06 -6.80372887e-06
      -3.71701972e-05 6.62421235e-06 -1.52286966e-05 -6.84853876e-05
      -6.85017003e-05 -3.91705362e-06 3.96699652e-05 1.94288459e-05
      2.39059827e-05 5.45227194e-05 3.17230224e-05 -5.10153905e-06
      -1.28656829e-05 -7.55133988e-06 2.10555336e-05 5.13777813e-05
      6.40626458e-05 3.81852369e-05 -7.55646033e-06 -2.81305756e-06
      -1.01168798e-05 -5.67287225e-06 -3.77163378e-05 -6.90933157e-05
      -4.28251296e-05 7.71250689e-06 3.84148625e-05 4.93765838e-05
      6.29537462e-05 7.52154738e-05 3.34336983e-05 1.91433955e-05
      3.72657450e-05 2.79194774e-05 4.79765658e-05 6.08585615e-05
      5.44755021e-05 2.09502450e-05</_>
    <_>
      0. 0. 0. 0. 0. 0. 0. 0. 0. 0. 4.57705625e-07 1.77491688e-06
      2.11136467e-06 2.08105030e-06 1.77790571e-06 1.32020000e-06
      3.06133330e-07 0. 0. 0. 0. 0. 0. 0. 0. 0. 0. 0. 4.05619119e-07
      4.66337542e-06 1.06353664e-05 1.37959623e-05 1.25558408e-05
      8.77598723e-06 6.42661871e-06 4.84045177e-06 3.81437690e-06
      3.43583247e-06 1.58229125e-06 2.26041607e-07 0. 0. 0. 0.
      -2.92616676e-07 -9.07111735e-06 -2.22388680e-05 -2.30643436e-05
      -1.84709261e-05 -2.72083889e-06 1.92941316e-05 2.88108804e-05
      2.90951084e-05 1.37546031e-05 -1.32268724e-05 -1.86539746e-05
      -1.71632873e-05 -5.89218598e-06 6.90045636e-06 2.80291601e-06 0.
      0. 0. 0. -3.21878338e-06 -4.13885609e-05 -7.34093919e-05
      -7.40697578e-05 -5.54942853e-05 -2.84450962e-05 -2.47371991e-05
      -3.79602207e-05 -2.62279700e-05 -2.43126051e-05 -6.27741829e-05
      -1.16099269e-04 -1.10862304e-04 -4.27943814e-05 6.91283049e-06
      7.05249840e-06 0. 0. 0. 0. -4.68186681e-06 -5.37412670e-05
      -1.03945087e-04 -1.18125819e-04 -7.95857122e-05 -2.54913175e-05
      -3.28919887e-05 -1.97060745e-05 -1.81919961e-06 1.43784303e-06
      -3.34758442e-05 -1.15412957e-04 -1.24461323e-04 -5.44576615e-05
      6.84625547e-06 8.63478999e-06 0. 0. 0. 0. -4.68186681e-06
      -5.19833702e-05 -9.59478639e-05 -1.00651407e-04 -5.18240049e-05
      2.82064302e-05 6.18949052e-05 7.16705981e-05 7.77910172e-05
      7.71965497e-05 4.60796909e-05 -2.80280419e-05 -4.62816970e-05
      -2.59832414e-05 8.30933914e-06 8.63478999e-06 0. 0. 0. 0.
      -4.68186681e-06 -5.48903627e-05 -1.02737577e-04 -7.60912371e-05
      -3.79905759e-05 6.89276203e-05 1.43767204e-04 1.57572591e-04
      1.58830007e-04 1.58785449e-04 1.36916860e-04 4.35808579e-05
      7.77103287e-06 8.37949392e-06 1.12355056e-05 8.63478999e-06 0. 0.
      0. 0. -6.93889388e-06 -7.48969687e-05 -9.27454385e-05
      -5.46989577e-05 -2.36677497e-05 9.05330817e-05 1.54591296e-04
      1.77241658e-04 1.82145101e-04 1.81264593e-04 1.52646346e-04
      5.49447941e-05 1.38646519e-05 1.16301662e-05 1.13472888e-05
      7.36895663e-06 0. 0. 0. 3.44990184e-07 -1.59410956e-05
      -8.42986992e-05 -7.20115713e-05 -4.93754269e-05 4.63045444e-06
      7.69335165e-05 1.03937295e-04 1.44096688e-04 1.79684226e-04
      1.75144887e-04 1.37604802e-04 5.96690697e-05 1.50314718e-05
      1.16301662e-05 1.11212476e-05 5.78666504e-06 0. 0. 5.38408074e-08
      4.06561912e-06 -3.56941769e-07 -4.28698986e-05 -4.49241852e-05
      -2.42564020e-05 -1.94399872e-05 -1.89373222e-05 -1.98960151e-06
      4.96578905e-05 1.18191769e-04 1.06697516e-04 1.03357641e-04
      5.59977670e-05 1.42719127e-05 1.16301662e-05 1.08499971e-05
      3.93312393e-06 0. 4.88351475e-07 6.14580722e-06 2.50503490e-05
      4.98978843e-05 9.26254597e-06 -8.11079826e-06 -2.08704696e-05
      -6.24955137e-05 -9.31754475e-05 -7.16858412e-05 -3.15073339e-05
      2.94905703e-06 -1.30929611e-05 -2.05809192e-06 -1.38857376e-05
      -6.84377710e-06 1.08898139e-05 1.08499971e-05 3.93312393e-06
      3.75466175e-06 7.13736472e-06 4.35705952e-05 1.06482927e-04
      1.09512708e-04 5.46055417e-05 1.78413193e-05 -2.02121464e-05
      -2.24735704e-05 -2.70871406e-05 -2.78231437e-06 1.69400810e-05
      3.03535262e-06 -8.70217718e-06 -1.87437709e-05 -7.13861227e-05
      -7.98155306e-05 -3.50096457e-06 1.39665408e-05 8.56653787e-06
      1.27534722e-05 2.31827125e-05 8.74506513e-05 1.57272909e-04
      1.31936191e-04 1.04142797e-04 8.72190576e-05 5.54638682e-05
      4.07074513e-05 5.00641145e-05 7.30454994e-05 8.72975870e-05
      6.30347931e-05 2.55296636e-05 1.12323062e-06 -2.91818142e-05
      -8.10897982e-05 -1.87099577e-05 4.08856213e-05 2.22656145e-05
      3.18652237e-05 4.77377216e-05 1.14232877e-04 1.67862483e-04
      1.61480551e-04 1.39310796e-04 1.44106409e-04 1.40032556e-04
      1.28426254e-04 1.18249358e-04 1.37010866e-04 1.48176347e-04
      1.23405785e-04 7.95746528e-05 1.47778637e-05 -2.46267746e-06
      -1.28453221e-05 3.24365355e-05 6.82658574e-05 3.47897185e-05
      3.53280921e-05 3.97223521e-05 7.54441935e-05 1.33071037e-04
      1.35882336e-04 1.22964630e-04 1.13521171e-04 9.65844592e-05
      9.33901902e-05 8.96142519e-05 1.08119166e-04 1.63530029e-04
      1.60513504e-04 1.00114172e-04 1.36490617e-05 -1.22003739e-05
      -1.56387669e-05 8.07099150e-06 4.00364770e-05 2.24019404e-05
      1.52030898e-05 1.83977536e-05 3.14005811e-05 5.40682959e-05
      4.37150811e-05 3.75133532e-05 3.60168124e-05 3.54418480e-05
      3.70462622e-05 3.49328729e-05 4.59565126e-05 1.07464963e-04
      1.54167268e-04 9.00359446e-05 -1.05528625e-05 -2.47852622e-05
      -4.08019332e-05 -3.32499403e-05 1.24694843e-05 1.47749597e-05
      4.50910647e-06 4.54617839e-06 4.54268593e-06 4.08483265e-06
      4.01090074e-06 7.86466080e-06 9.38288122e-06 9.05258457e-06
      9.49490186e-06 1.06418938e-05 2.36057203e-05 6.31794101e-05
      8.16103566e-05 2.70615019e-05 -1.32198547e-05 -2.70879591e-05
      -2.56742096e-05 -2.36829710e-05 8.77189632e-06 5.71291821e-06
      6.12266660e-07 1.26917780e-06 1.62633341e-06 -6.25653698e-08
      -8.50705874e-06 -8.50705874e-06 -2.20182483e-05 -1.01959577e-05
      -1.86404523e-05 -2.32910479e-05 -2.52332629e-05 -2.35429543e-05
      -9.56231725e-06 -3.82678045e-05 -4.20214637e-05 -4.02270161e-05
      -3.41169471e-05 -2.16088047e-05 7.05782350e-06 1.98465523e-06
      1.40311116e-07 8.92888920e-07 1.20616119e-06 -9.23572679e-06
      -2.49956374e-05 -1.67001162e-05 -3.33906428e-05 -2.82219007e-05
      -3.26482368e-05 -2.96729104e-05 -4.56079215e-05 -7.02269972e-05
      -7.81127310e-05 -9.86534069e-05 -7.83069263e-05 -4.19322459e-05
      -2.83056470e-05 2.15734258e-06 8.91634772e-06 1.52263578e-06
      1.27555557e-08 1.97711117e-07 -2.73407227e-06 -4.04561106e-05
      -6.24023596e-05 -6.67735803e-05 -9.52863993e-05 -8.50509605e-05
      -5.56993218e-05 -5.12443548e-05 -5.56078885e-05 -5.74873848e-05
      -6.02311266e-05 -6.17026963e-05 -5.33102757e-05 -3.73701878e-05
      -8.95036464e-06 4.15072964e-06 2.83723557e-06 2.57930509e-07</_></support_vectors>
  <uncompressed_sv_total>68</uncompressed_sv_total>
  <uncompressed_support_vectors>
    <_>
      0. 0. 0. 0. 0. 0. 0. 0. 0. 0. 2. 30. 126. 225. 255. 255. 175. 16.
      0. 0. 0. 0. 0. 0. 0. 0. 0. 0. 0. 0. 11. 125. 220. 250. 255. 255.
      175. 16. 0. 0. 0. 0. 0. 0. 0. 0. 0. 0. 0. 0. 16. 175. 255. 255.
      255. 255. 175. 16. 0. 0. 0. 0. 0. 0. 0. 0. 0. 0. 0. 0. 16. 175.
      255. 255. 255. 255. 175. 16. 0. 0. 0. 0. 0. 0. 0. 0. 0. 0. 0. 0.
      15. 168. 223. 204. 250. 255. 175. 16. 0. 0. 0. 0. 0. 0. 0. 0. 0.
      0. 0. 0. 5. 79. 84. 75. 220. 255. 175. 16. 0. 0. 0. 0. 0. 0. 0. 0.
      0. 0. 0. 0. 0. 4. 4. 40. 199. 250. 145. 11. 0. 0. 0. 0. 0. 0. 0.
      0. 0. 0. 0. 0. 0. 0. 0. 72. 231. 245. 116. 6. 0. 0. 0. 0. 0. 0. 0.
      0. 0. 0. 0. 0. 0. 0. 0. 40. 199. 253. 163. 14. 0. 0. 0. 0. 0. 0.
      0. 0. 0. 0. 0. 0. 0. 0. 0. 60. 219. 245. 116. 6. 0. 0. 0. 0. 0. 0.
      0. 0. 0. 0. 0. 0. 0. 0. 0. 80. 239. 249. 139. 10. 0. 0. 0. 0. 0.
      0. 0. 0. 0. 0. 0. 0. 0. 0. 0. 80. 239. 244. 110. 5. 0. 0. 0. 0. 0.
      0. 0. 0. 0. 0. 0. 0. 0. 0. 0. 80. 239. 244. 110. 5. 0. 0. 0. 0. 0.
      0. 0. 0. 0. 0. 0. 0. 0. 0. 0. 80. 239. 253. 163. 14. 0. 0. 0. 0.
      0. 0. 0. 0. 0. 0. 0. 0. 0. 0. 0. 80. 239. 245. 116. 6. 0. 0. 0. 0.
      0. 0. 0. 0. 0. 0. 0. 0. 0. 0. 0. 80. 239. 250. 145. 11. 0. 0. 0.
      0. 0. 0. 0. 0. 0. 0. 0. 0. 0. 0. 0. 80. 239. 250. 145. 11. 0. 0.
      0. 0. 0. 0. 0. 0. 0. 0. 0. 0. 0. 0. 0. 80. 239. 241. 92. 2. 0. 0.
      0. 0. 0. 0. 0. 0. 0. 0. 0. 0. 0. 0. 0. 80. 239. 245. 116. 6. 0. 0.
      0. 0. 0. 0. 0. 0. 0. 0. 0. 0. 0. 0. 0. 80. 239. 240. 86. 1. 0. 0.</_>
    <_>
      0. 0. 0. 0. 0. 0. 0. 0. 0. 0. 0. 18. 147. 249. 247. 128. 8. 0. 0.
      0. 0. 0. 0. 0. 0. 0. 0. 0. 0. 5. 35. 110. 218. 254. 243. 104. 4.
      0. 0. 0. 0. 0. 0. 0. 0. 0. 0. 0. 0. 55. 184. 240. 254. 255. 240.
      86. 1. 0. 0. 0. 0. 0. 0. 0. 0. 0. 0. 0. 0. 80. 239. 255. 255. 255.
      245. 116. 6. 0. 0. 0. 0. 0. 0. 0. 0. 0. 0. 0. 0. 80. 239. 254.
      249. 254. 241. 92. 2. 0. 0. 0. 0. 0. 0. 0. 0. 0. 0. 0. 0. 75. 220.
      189. 164. 244. 250. 145. 11. 0. 0. 0. 0. 0. 0. 0. 0. 0. 0. 0. 0.
      25. 71. 35. 85. 239. 251. 151. 12. 0. 0. 0. 0. 0. 0. 0. 0. 0. 0.
      0. 0. 0. 0. 0. 80. 239. 251. 151. 12. 0. 0. 0. 0. 0. 0. 0. 0. 0.
      0. 0. 0. 0. 0. 0. 80. 239. 250. 145. 11. 0. 0. 0. 0. 0. 0. 0. 0.
      0. 0. 0. 0. 0. 0. 0. 80. 239. 245. 116. 6. 0. 0. 0. 0. 0. 0. 0. 0.
      0. 0. 0. 0. 0. 0. 0. 80. 239. 253. 163. 14. 0. 0. 0. 0. 0. 0. 0.
      0. 0. 0. 0. 0. 0. 0. 0. 80. 239. 249. 139. 10. 0. 0. 0. 0. 0. 0.
      0. 0. 0. 0. 0. 0. 0. 0. 0. 80. 239. 254. 169. 15. 0. 0. 0. 0. 0.
      0. 0. 0. 0. 0. 0. 0. 0. 0. 0. 80. 239. 255. 175. 16. 0. 0. 0. 0.
      0. 0. 0. 0. 0. 0. 0. 0. 0. 0. 0. 80. 239. 255. 175. 16. 0. 0. 0.
      0. 0. 0. 0. 0. 0. 0. 0. 0. 0. 0. 0. 64. 223. 255. 175. 16. 0. 0.
      0. 0. 0. 0. 0. 0. 0. 0. 0. 0. 0. 0. 0. 64. 223. 255. 175. 16. 0.
      0. 0. 0. 0. 0. 0. 0. 0. 0. 0. 0. 0. 0. 0. 80. 239. 251. 151. 12.
      0. 0. 0. 0. 0. 0. 0. 0. 0. 0. 0. 0. 0. 0. 0. 80. 239. 251. 151.
      12. 0. 0. 0. 0. 0. 0. 0. 0. 0. 0. 0. 0. 0. 0. 0. 80. 239. 255.
      175. 16. 0. 0. 0.</_>
    <_>
      0. 0. 0. 0. 0. 0. 0. 0. 0. 0. 18. 118. 159. 110. 10. 0. 0. 0. 0.
      0. 0. 0. 0. 0. 0. 0. 0. 0. 1. 15. 94. 213. 239. 164. 15. 0. 0. 0.
      0. 0. 0. 0. 0. 0. 0. 0. 0. 9. 65. 149. 224. 254. 255. 179. 20. 0.
      0. 0. 0. 0. 0. 0. 0. 0. 0. 0. 4. 83. 213. 250. 255. 255. 255. 219.
      60. 0. 0. 0. 0. 0. 0. 0. 0. 0. 0. 0. 5. 110. 244. 255. 255. 255.
      255. 235. 76. 0. 0. 0. 0. 0. 0. 0. 0. 0. 0. 0. 10. 139. 248. 244.
      244. 254. 255. 199. 40. 0. 0. 0. 0. 0. 0. 0. 0. 0. 0. 0. 5. 85.
      163. 110. 134. 244. 255. 219. 60. 0. 0. 0. 0. 0. 0. 0. 0. 0. 0. 0.
      0. 5. 14. 6. 86. 240. 255. 239. 80. 0. 0. 0. 0. 0. 0. 0. 0. 0. 0.
      0. 0. 0. 0. 6. 116. 245. 255. 239. 80. 0. 0. 0. 0. 0. 0. 0. 0. 0.
      0. 0. 0. 0. 0. 6. 116. 245. 255. 239. 80. 0. 0. 0. 0. 0. 0. 0. 0.
      0. 0. 0. 0. 0. 0. 10. 139. 249. 255. 239. 80. 0. 0. 0. 0. 0. 0. 0.
      0. 0. 0. 0. 0. 0. 0. 6. 116. 245. 255. 239. 80. 0. 0. 0. 0. 0. 0.
      0. 0. 0. 0. 0. 0. 0. 0. 10. 139. 249. 255. 239. 80. 0. 0. 0. 0. 0.
      0. 0. 0. 0. 0. 0. 0. 0. 0. 1. 86. 240. 255. 239. 80. 0. 0. 0. 0.
      0. 0. 0. 0. 0. 0. 0. 0. 0. 0. 0. 80. 239. 255. 239. 80. 0. 0. 0.
      0. 0. 0. 0. 0. 0. 0. 0. 0. 0. 0. 0. 80. 239. 255. 239. 80. 0. 0.
      0. 0. 0. 0. 0. 0. 0. 0. 0. 0. 0. 0. 0. 80. 239. 255. 239. 80. 0.
      0. 0. 0. 0. 0. 0. 0. 0. 0. 0. 0. 0. 0. 0. 80. 239. 255. 239. 80.
      0. 0. 0. 0. 0. 0. 0. 0. 0. 0. 0. 0. 0. 0. 0. 80. 239. 255. 235.
      76. 0. 0. 0. 0. 0. 0. 0. 0. 0. 0. 0. 0. 0. 0. 0. 60. 179. 191.
      151. 32. 0. 0. 0. 0. 0.</_>
    <_>
      0. 0. 0. 0. 0. 0. 0. 0. 0. 2. 22. 32. 22. 2. 0. 0. 0. 0. 0. 0. 0.
      0. 0. 0. 0. 0. 0. 0. 9. 65. 145. 175. 140. 31. 0. 0. 0. 0. 0. 0.
      0. 0. 0. 0. 0. 0. 1. 15. 94. 214. 250. 255. 215. 56. 0. 0. 0. 0.
      0. 0. 0. 0. 0. 0. 0. 5. 61. 149. 224. 254. 255. 255. 183. 24. 0.
      0. 0. 0. 0. 0. 0. 0. 0. 0. 0. 15. 165. 250. 255. 255. 255. 255.
      199. 40. 0. 0. 0. 0. 0. 0. 0. 0. 0. 0. 0. 32. 191. 255. 255. 255.
      255. 255. 179. 20. 0. 0. 0. 0. 0. 0. 0. 0. 0. 0. 0. 31. 185. 249.
      241. 250. 255. 255. 179. 20. 0. 0. 0. 0. 0. 0. 0. 0. 0. 0. 0. 5.
      85. 139. 101. 204. 255. 255. 203. 44. 0. 0. 0. 0. 0. 0. 0. 0. 0.
      0. 0. 0. 5. 10. 57. 215. 255. 255. 223. 64. 0. 0. 0. 0. 0. 0. 0.
      0. 0. 0. 0. 0. 0. 0. 36. 195. 255. 255. 239. 80. 0. 0. 0. 0. 0. 0.
      0. 0. 0. 0. 0. 0. 0. 0. 36. 195. 255. 255. 239. 80. 0. 0. 0. 0. 0.
      0. 0. 0. 0. 0. 0. 0. 0. 0. 76. 235. 255. 255. 239. 80. 0. 0. 0. 0.
      0. 0. 0. 0. 0. 0. 0. 0. 0. 0. 60. 219. 255. 255. 239. 80. 0. 0. 0.
      0. 0. 0. 0. 0. 0. 0. 0. 0. 0. 0. 24. 183. 255. 255. 219. 60. 0. 0.
      0. 0. 0. 0. 0. 0. 0. 0. 0. 0. 0. 0. 40. 199. 255. 255. 179. 20. 0.
      0. 0. 0. 0. 0. 0. 0. 0. 0. 0. 0. 0. 0. 40. 199. 255. 255. 175. 16.
      0. 0. 0. 0. 0. 0. 0. 0. 0. 0. 0. 0. 0. 0. 60. 219. 255. 255. 175.
      16. 0. 0. 0. 0. 0. 0. 0. 0. 0. 0. 0. 0. 0. 0. 44. 203. 255. 255.
      175. 16. 0. 0. 0. 0. 0. 0. 0. 0. 0. 0. 0. 0. 0. 0. 20. 179. 255.
      255. 175. 16. 0. 0. 0. 0. 0. 0. 0. 0. 0. 0. 0. 0. 0. 0. 16. 175.
      255. 255. 175. 16. 0. 0. 0. 0. 0. 0.</_>
    <_>
      0. 0. 0. 0. 0. 0. 0. 0. 0. 0. 0. 0. 0. 0. 0. 0. 0. 0. 0. 0. 0. 0.
      0. 0. 0. 0. 0. 0. 0. 0. 1. 15. 55. 25. 0. 0. 0. 0. 0. 0. 0. 0. 0.
      0. 0. 0. 0. 0. 0. 5. 41. 145. 209. 105. 5. 0. 0. 0. 0. 0. 0. 0. 0.
      0. 0. 0. 0. 1. 31. 106. 190. 246. 253. 163. 14. 0. 0. 0. 0. 0. 0.
      0. 0. 0. 0. 0. 0. 31. 160. 240. 254. 255. 244. 110. 5. 0. 0. 0. 0.
      0. 0. 0. 0. 0. 0. 0. 0. 76. 235. 254. 249. 254. 239. 80. 0. 0. 0.
      0. 0. 0. 0. 0. 0. 0. 0. 0. 0. 59. 204. 189. 160. 240. 239. 80. 0.
      0. 0. 0. 0. 0. 0. 0. 0. 0. 0. 0. 0. 9. 55. 35. 41. 195. 244. 110.
      5. 0. 0. 0. 0. 0. 0. 0. 0. 0. 0. 0. 0. 0. 0. 0. 36. 195. 254. 169.
      15. 0. 0. 0. 0. 0. 0. 0. 0. 0. 0. 0. 0. 0. 0. 0. 76. 235. 255.
      175. 16. 0. 0. 0. 0. 0. 0. 0. 0. 0. 0. 0. 0. 0. 0. 0. 60. 219.
      255. 175. 16. 0. 0. 0. 0. 0. 0. 0. 0. 0. 0. 0. 0. 0. 0. 0. 20.
      179. 255. 175. 16. 0. 0. 0. 0. 0. 0. 0. 0. 0. 0. 0. 0. 0. 0. 0.
      16. 175. 255. 175. 16. 0. 0. 0. 0. 0. 0. 0. 0. 0. 0. 0. 0. 0. 0.
      0. 16. 175. 255. 175. 16. 0. 0. 0. 0. 0. 0. 0. 0. 0. 0. 0. 0. 0.
      0. 0. 16. 175. 255. 175. 16. 0. 0. 0. 0. 0. 0. 0. 0. 0. 0. 0. 0.
      0. 0. 0. 16. 175. 255. 175. 16. 0. 0. 0. 0. 0. 0. 0. 0. 0. 0. 0.
      0. 0. 0. 0. 16. 175. 255. 175. 16. 0. 0. 0. 0. 0. 0. 0. 0. 0. 0.
      0. 0. 0. 0. 0. 20. 179. 255. 175. 16. 0. 0. 0. 0. 0. 0. 0. 0. 0.
      0. 0. 0. 0. 0. 0. 39. 188. 239. 164. 15. 0. 0. 0. 0. 0. 0. 0. 0.
      0. 0. 0. 0. 0. 0. 0. 9. 59. 80. 55. 5. 0. 0. 0. 0. 0.</_>
    <_>
      0. 0. 0. 0. 0. 2. 36. 185. 255. 175. 16. 0. 0. 0. 0. 0. 0. 0. 0.
      0. 0. 0. 0. 0. 1. 21. 130. 230. 255. 175. 16. 0. 0. 0. 0. 0. 0. 0.
      0. 0. 0. 0. 0. 0. 31. 145. 230. 255. 255. 175. 16. 0. 0. 0. 0. 0.
      0. 0. 0. 0. 0. 0. 0. 0. 76. 235. 255. 255. 255. 175. 16. 0. 0. 0.
      0. 0. 0. 0. 0. 0. 0. 0. 0. 0. 80. 239. 251. 251. 255. 175. 16. 0.
      0. 0. 0. 0. 0. 0. 0. 0. 0. 0. 0. 0. 75. 220. 176. 206. 255. 175.
      16. 0. 0. 0. 0. 0. 0. 0. 0. 0. 0. 0. 0. 0. 25. 71. 47. 176. 255.
      175. 16. 0. 0. 0. 0. 0. 0. 0. 0. 0. 0. 0. 0. 0. 0. 0. 16. 175.
      255. 175. 16. 0. 0. 0. 0. 0. 0. 0. 0. 0. 0. 0. 0. 0. 0. 0. 16.
      175. 255. 175. 16. 0. 0. 0. 0. 0. 0. 0. 0. 0. 0. 0. 0. 0. 0. 0.
      16. 175. 255. 175. 16. 0. 0. 0. 0. 0. 0. 0. 0. 0. 0. 0. 0. 0. 0.
      0. 16. 175. 255. 175. 16. 0. 0. 0. 0. 0. 0. 0. 0. 0. 0. 0. 0. 0.
      0. 0. 16. 175. 255. 175. 16. 0. 0. 0. 0. 0. 0. 0. 0. 0. 0. 0. 0.
      0. 0. 0. 16. 175. 255. 175. 16. 0. 0. 0. 0. 0. 0. 0. 0. 0. 0. 0.
      0. 0. 0. 0. 16. 175. 255. 175. 16. 0. 0. 0. 0. 0. 0. 0. 0. 0. 0.
      0. 0. 0. 0. 0. 16. 175. 255. 175. 16. 0. 0. 0. 0. 0. 0. 0. 0. 0.
      0. 0. 0. 0. 0. 0. 16. 175. 255. 175. 16. 0. 0. 0. 0. 0. 0. 0. 0.
      0. 0. 0. 0. 0. 0. 0. 16. 175. 255. 175. 16. 0. 0. 0. 0. 0. 0. 0.
      0. 0. 0. 0. 0. 0. 0. 0. 16. 175. 255. 175. 16. 0. 0. 0. 0. 0. 0.
      0. 0. 0. 0. 0. 0. 0. 0. 0. 16. 175. 255. 175. 16. 0. 0. 0. 0. 0.
      0. 0. 0. 0. 0. 0. 0. 0. 0. 0. 16. 175. 255. 175. 16. 0. 0. 0. 0.
      0. 0. 0. 0. 0.</_>
    <_>
      0. 0. 0. 0. 0. 0. 0. 0. 0. 0. 0. 0. 0. 0. 0. 0. 0. 0. 0. 0. 0. 0.
      0. 0. 0. 0. 0. 0. 0. 1. 31. 76. 59. 9. 0. 0. 0. 0. 0. 0. 0. 0. 0.
      0. 0. 0. 0. 0. 9. 65. 165. 235. 208. 59. 0. 0. 0. 0. 0. 0. 0. 0.
      0. 0. 0. 0. 5. 35. 110. 214. 250. 255. 239. 80. 0. 0. 0. 0. 0. 0.
      0. 0. 0. 0. 0. 0. 55. 184. 240. 254. 255. 255. 239. 80. 0. 0. 0.
      0. 0. 0. 0. 0. 0. 0. 0. 0. 80. 239. 255. 255. 255. 255. 239. 80.
      0. 0. 0. 0. 0. 0. 0. 0. 0. 0. 0. 0. 76. 235. 255. 255. 255. 255.
      239. 80. 0. 0. 0. 0. 0. 0. 0. 0. 0. 0. 0. 0. 31. 140. 180. 230.
      255. 255. 239. 80. 0. 0. 0. 0. 0. 0. 0. 0. 0. 0. 0. 0. 1. 11. 31.
      180. 255. 255. 239. 80. 0. 0. 0. 0. 0. 0. 0. 0. 0. 0. 0. 0. 0. 0.
      16. 175. 255. 255. 239. 80. 0. 0. 0. 0. 0. 0. 0. 0. 0. 0. 0. 0. 0.
      0. 16. 175. 255. 255. 239. 80. 0. 0. 0. 0. 0. 0. 0. 0. 0. 0. 0. 0.
      0. 0. 16. 175. 255. 255. 239. 80. 0. 0. 0. 0. 0. 0. 0. 0. 0. 0. 0.
      0. 0. 0. 16. 175. 255. 255. 239. 80. 0. 0. 0. 0. 0. 0. 0. 0. 0. 0.
      0. 0. 0. 0. 16. 175. 255. 255. 239. 80. 0. 0. 0. 0. 0. 0. 0. 0. 0.
      0. 0. 0. 0. 0. 16. 175. 255. 255. 239. 80. 0. 0. 0. 0. 0. 0. 0. 0.
      0. 0. 0. 0. 0. 0. 16. 175. 255. 255. 239. 80. 0. 0. 0. 0. 0. 0. 0.
      0. 0. 0. 0. 0. 0. 0. 16. 175. 255. 255. 239. 80. 0. 0. 0. 0. 0. 0.
      0. 0. 0. 0. 0. 0. 0. 0. 16. 175. 255. 255. 239. 80. 0. 0. 0. 0. 0.
      0. 0. 0. 0. 0. 0. 0. 0. 0. 15. 165. 250. 255. 239. 80. 0. 0. 0. 0.
      0. 0. 0. 0. 0. 0. 0. 0. 0. 0. 5. 62. 156. 191. 179. 60. 0. 0. 0.
      0. 0. 0.</_>
    <_>
      0. 0. 0. 0. 0. 0. 0. 0. 0. 0. 0. 0. 0. 0. 0. 0. 0. 0. 0. 0. 0. 0.
      0. 0. 0. 0. 0. 0. 0. 1. 31. 76. 80. 55. 5. 0. 0. 0. 0. 0. 0. 0. 0.
      0. 0. 0. 0. 0. 9. 65. 165. 235. 239. 164. 15. 0. 0. 0. 0. 0. 0. 0.
      0. 0. 0. 0. 5. 55. 114. 214. 250. 255. 255. 175. 16. 0. 0. 0. 0.
      0. 0. 0. 0. 0. 0. 0. 15. 164. 244. 254. 255. 255. 255. 175. 16. 0.
      0. 0. 0. 0. 0. 0. 0. 0. 0. 0. 16. 175. 255. 255. 255. 255. 255.
      175. 16. 0. 0. 0. 0. 0. 0. 0. 0. 0. 0. 0. 15. 164. 219. 184. 230.
      255. 255. 175. 16. 0. 0. 0. 0. 0. 0. 0. 0. 0. 0. 0. 5. 55. 60. 35.
      180. 255. 255. 175. 16. 0. 0. 0. 0. 0. 0. 0. 0. 0. 0. 0. 0. 0. 0.
      16. 175. 255. 255. 175. 16. 0. 0. 0. 0. 0. 0. 0. 0. 0. 0. 0. 0. 0.
      0. 16. 175. 255. 255. 175. 16. 0. 0. 0. 0. 0. 0. 0. 0. 0. 0. 0. 0.
      0. 0. 16. 175. 255. 255. 175. 16. 0. 0. 0. 0. 0. 0. 0. 0. 0. 0. 0.
      0. 0. 0. 16. 175. 255. 255. 175. 16. 0. 0. 0. 0. 0. 0. 0. 0. 0. 0.
      0. 0. 0. 0. 16. 175. 255. 255. 175. 16. 0. 0. 0. 0. 0. 0. 0. 0. 0.
      0. 0. 0. 0. 0. 16. 175. 255. 255. 175. 16. 0. 0. 0. 0. 0. 0. 0. 0.
      0. 0. 0. 0. 0. 0. 16. 175. 255. 255. 175. 16. 0. 0. 0. 0. 0. 0. 0.
      0. 0. 0. 0. 0. 0. 0. 16. 175. 255. 255. 175. 16. 0. 0. 0. 0. 0. 0.
      0. 0. 0. 0. 0. 0. 0. 0. 16. 175. 255. 255. 175. 16. 0. 0. 0. 0. 0.
      0. 0. 0. 0. 0. 0. 0. 0. 0. 16. 175. 255. 250. 145. 11. 0. 0. 0. 0.
      0. 0. 0. 0. 0. 0. 0. 0. 0. 0. 11. 121. 175. 165. 61. 1. 0. 0. 0.
      0. 0. 0. 0. 0. 0. 0. 0. 0. 0. 0. 1. 11. 16. 15. 5. 0. 0. 0. 0. 0.
      0.</_>
    <_>
      0. 0. 0. 0. 0. 0. 0. 0. 0. 0. 0. 0. 24. 183. 255. 255. 255. 255.
      175. 16. 0. 0. 0. 0. 0. 0. 0. 0. 0. 0. 0. 0. 40. 199. 255. 255.
      255. 255. 175. 16. 0. 0. 0. 0. 0. 0. 0. 0. 0. 0. 0. 0. 20. 179.
      255. 255. 255. 255. 175. 16. 0. 0. 0. 0. 0. 0. 0. 0. 0. 0. 0. 0.
      16. 175. 255. 255. 255. 255. 175. 16. 0. 0. 0. 0. 0. 0. 0. 0. 0.
      0. 0. 0. 11. 121. 175. 200. 250. 255. 175. 16. 0. 0. 0. 0. 0. 0.
      0. 0. 0. 0. 0. 0. 1. 11. 16. 91. 240. 255. 175. 16. 0. 0. 0. 0. 0.
      0. 0. 0. 0. 0. 0. 0. 0. 0. 0. 80. 239. 255. 175. 16. 0. 0. 0. 0.
      0. 0. 0. 0. 0. 0. 0. 0. 0. 0. 0. 80. 239. 255. 195. 36. 0. 0. 0.
      0. 0. 0. 0. 0. 0. 0. 0. 0. 0. 0. 0. 80. 239. 255. 235. 76. 0. 0.
      0. 0. 0. 0. 0. 0. 0. 0. 0. 0. 0. 0. 0. 80. 239. 255. 223. 64. 0.
      0. 0. 0. 0. 0. 0. 0. 0. 0. 0. 0. 0. 0. 0. 80. 239. 255. 223. 64.
      0. 0. 0. 0. 0. 0. 0. 0. 0. 0. 0. 0. 0. 0. 0. 80. 239. 255. 239.
      80. 0. 0. 0. 0. 0. 0. 0. 0. 0. 0. 0. 0. 0. 0. 0. 80. 239. 255.
      219. 60. 0. 0. 0. 0. 0. 0. 0. 0. 0. 0. 0. 0. 0. 0. 0. 76. 235.
      255. 183. 24. 0. 0. 0. 0. 0. 0. 0. 0. 0. 0. 0. 0. 0. 0. 0. 52.
      211. 255. 219. 60. 0. 0. 0. 0. 0. 0. 0. 0. 0. 0. 0. 0. 0. 0. 0.
      52. 211. 255. 239. 80. 0. 0. 0. 0. 0. 0. 0. 0. 0. 0. 0. 0. 0. 0.
      0. 72. 231. 255. 239. 80. 0. 0. 0. 0. 0. 0. 0. 0. 0. 0. 0. 0. 0.
      0. 0. 36. 195. 255. 239. 80. 0. 0. 0. 0. 0. 0. 0. 0. 0. 0. 0. 0.
      0. 0. 0. 36. 195. 255. 239. 80. 0. 0. 0. 0. 0. 0. 0. 0. 0. 0. 0.
      0. 0. 0. 0. 60. 219. 255. 239. 80.</_>
    <_>
      0. 0. 0. 0. 0. 0. 0. 0. 0. 2. 62. 181. 249. 255. 175. 16. 0. 0. 0.
      0. 0. 0. 0. 0. 0. 0. 0. 0. 1. 37. 161. 240. 254. 255. 195. 36. 0.
      0. 0. 0. 0. 0. 0. 0. 0. 0. 0. 5. 61. 166. 246. 255. 255. 255. 231.
      72. 0. 0. 0. 0. 0. 0. 0. 0. 0. 0. 0. 15. 165. 250. 255. 255. 255.
      255. 211. 52. 0. 0. 0. 0. 0. 0. 0. 0. 0. 0. 0. 16. 175. 255. 255.
      255. 255. 255. 195. 36. 0. 0. 0. 0. 0. 0. 0. 0. 0. 0. 0. 15. 164.
      239. 244. 254. 255. 255. 219. 60. 0. 0. 0. 0. 0. 0. 0. 0. 0. 0. 0.
      5. 55. 80. 115. 224. 255. 255. 239. 80. 0. 0. 0. 0. 0. 0. 0. 0. 0.
      0. 0. 0. 0. 0. 20. 179. 255. 255. 239. 80. 0. 0. 0. 0. 0. 0. 0. 0.
      0. 0. 0. 0. 0. 0. 16. 175. 255. 255. 239. 80. 0. 0. 0. 0. 0. 0. 0.
      0. 0. 0. 0. 0. 0. 0. 16. 175. 255. 255. 239. 80. 0. 0. 0. 0. 0. 0.
      0. 0. 0. 0. 0. 0. 0. 0. 16. 175. 255. 255. 239. 80. 0. 0. 0. 0. 0.
      0. 0. 0. 0. 0. 0. 0. 0. 0. 16. 175. 255. 255. 239. 80. 0. 0. 0. 0.
      0. 0. 0. 0. 0. 0. 0. 0. 0. 0. 16. 175. 255. 255. 239. 80. 0. 0. 0.
      0. 0. 0. 0. 0. 0. 0. 0. 0. 0. 0. 16. 175. 255. 255. 239. 80. 0. 0.
      0. 0. 0. 0. 0. 0. 0. 0. 0. 0. 0. 0. 16. 175. 255. 255. 239. 80. 0.
      0. 0. 0. 0. 0. 0. 0. 0. 0. 0. 0. 0. 0. 16. 175. 255. 255. 239. 80.
      0. 0. 0. 0. 0. 0. 0. 0. 0. 0. 0. 0. 0. 0. 16. 175. 255. 255. 239.
      80. 0. 0. 0. 0. 0. 0. 0. 0. 0. 0. 0. 0. 0. 0. 16. 175. 255. 255.
      239. 80. 0. 0. 0. 0. 0. 0. 0. 0. 0. 0. 0. 0. 0. 0. 16. 175. 255.
      255. 239. 80. 0. 0. 0. 0. 0. 0. 0. 0. 0. 0. 0. 0. 0. 0. 16. 175.
      255. 255. 223. 64. 0. 0. 0. 0.</_>
    <_>
      0. 0. 0. 0. 0. 0. 0. 0. 0. 0. 0. 0. 0. 0. 0. 0. 0. 0. 0. 0. 0. 0.
      0. 0. 0. 0. 0. 0. 0. 0. 0. 0. 0. 0. 0. 0. 0. 0. 0. 0. 0. 0. 0. 0.
      0. 0. 0. 0. 0. 0. 0. 0. 0. 0. 0. 0. 0. 0. 0. 0. 38. 9. 1. 10. 5.
      0. 0. 0. 0. 0. 0. 0. 0. 0. 0. 0. 0. 0. 0. 0. 179. 70. 42. 130. 55.
      0. 0. 0. 0. 0. 0. 0. 0. 0. 0. 0. 0. 0. 0. 0. 245. 200. 196. 230.
      80. 0. 0. 0. 0. 0. 0. 0. 0. 0. 0. 0. 0. 0. 0. 0. 255. 239. 239.
      243. 104. 4. 0. 0. 0. 0. 0. 0. 0. 0. 0. 0. 0. 0. 0. 0. 255. 238.
      208. 188. 95. 4. 0. 0. 0. 0. 0. 0. 0. 0. 0. 0. 0. 0. 0. 20. 255.
      245. 125. 40. 21. 0. 0. 0. 0. 0. 0. 0. 0. 0. 0. 0. 0. 0. 9. 99.
      255. 250. 189. 55. 5. 10. 1. 0. 0. 0. 0. 0. 0. 0. 0. 0. 0. 0. 59.
      212. 249. 254. 240. 91. 66. 111. 11. 0. 0. 0. 0. 0. 0. 0. 0. 0. 0.
      1. 86. 240. 189. 244. 250. 200. 200. 174. 20. 0. 0. 0. 0. 0. 0. 0.
      0. 0. 0. 11. 145. 250. 151. 235. 255. 255. 255. 219. 60. 0. 0. 0.
      0. 0. 0. 0. 0. 0. 0. 16. 175. 255. 78. 196. 255. 255. 255. 239.
      80. 0. 0. 0. 0. 0. 0. 0. 0. 0. 0. 20. 179. 255. 88. 156. 250. 255.
      255. 219. 60. 0. 0. 0. 0. 0. 0. 0. 0. 0. 0. 56. 215. 255. 68. 97.
      240. 255. 234. 133. 15. 0. 0. 0. 0. 0. 0. 0. 0. 0. 0. 31. 165.
      250. 6. 60. 213. 254. 224. 70. 1. 0. 0. 0. 0. 0. 0. 0. 0. 0. 0. 1.
      86. 240. 0. 9. 114. 244. 240. 86. 1. 0. 0. 0. 0. 0. 0. 0. 0. 0. 0.
      0. 60. 219. 0. 1. 86. 240. 250. 145. 11. 0. 0. 0. 0. 0. 0. 0. 0.
      0. 0. 0. 36. 195. 0. 7. 122. 246. 255. 175. 16. 0. 0. 0. 0. 0. 0.
      0. 0. 0. 0. 0. 32. 191.</_>
    <_>
      0. 0. 0. 0. 0. 0. 0. 0. 0. 2. 22. 102. 241. 255. 255. 175. 16. 0.
      0. 0. 0. 0. 0. 0. 0. 0. 0. 0. 0. 15. 125. 200. 250. 255. 255. 175.
      16. 0. 0. 0. 0. 0. 0. 0. 0. 0. 0. 0. 0. 60. 219. 255. 255. 255.
      255. 175. 16. 0. 0. 0. 0. 0. 0. 0. 0. 0. 0. 0. 1. 86. 240. 255.
      255. 255. 255. 175. 16. 0. 0. 0. 0. 0. 0. 0. 0. 0. 0. 0. 6. 116.
      245. 255. 255. 255. 255. 175. 16. 0. 0. 0. 0. 0. 0. 0. 0. 0. 0. 0.
      1. 61. 165. 180. 230. 255. 255. 175. 16. 0. 0. 0. 0. 0. 0. 0. 0.
      0. 0. 0. 0. 5. 15. 31. 180. 255. 255. 175. 16. 0. 0. 0. 0. 0. 0.
      0. 0. 0. 0. 0. 0. 0. 0. 16. 175. 255. 255. 175. 16. 0. 0. 0. 0. 0.
      0. 0. 0. 0. 0. 0. 0. 0. 0. 15. 169. 254. 255. 175. 16. 0. 0. 0. 0.
      0. 0. 0. 0. 0. 0. 0. 0. 0. 0. 10. 139. 249. 255. 175. 16. 0. 0. 0.
      0. 0. 0. 0. 0. 0. 0. 0. 0. 0. 0. 15. 169. 254. 255. 175. 16. 0. 0.
      0. 0. 0. 0. 0. 0. 0. 0. 0. 0. 0. 0. 15. 169. 254. 255. 175. 16. 0.
      0. 0. 0. 0. 0. 0. 0. 0. 0. 0. 0. 0. 0. 9. 133. 248. 255. 175. 16.
      0. 0. 0. 0. 0. 0. 0. 0. 0. 0. 0. 0. 0. 0. 9. 133. 248. 255. 175.
      16. 0. 0. 0. 0. 0. 0. 0. 0. 0. 0. 0. 0. 0. 0. 15. 169. 254. 255.
      175. 16. 0. 0. 0. 0. 0. 0. 0. 0. 0. 0. 0. 0. 0. 0. 16. 175. 255.
      255. 175. 16. 0. 0. 0. 0. 0. 0. 0. 0. 0. 0. 0. 0. 0. 0. 15. 169.
      254. 255. 175. 16. 0. 0. 0. 0. 0. 0. 0. 0. 0. 0. 0. 0. 0. 0. 9.
      133. 248. 255. 175. 16. 0. 0. 0. 0. 0. 0. 0. 0. 0. 0. 0. 0. 0. 0.
      9. 133. 248. 255. 175. 16. 0. 0. 0. 0. 0. 0. 0. 0. 0. 0. 0. 0. 0.
      0. 15. 169. 254. 255. 175. 16. 0. 0. 0.</_>
    <_>
      0. 0. 0. 0. 0. 0. 0. 0. 0. 0. 2. 62. 181. 249. 255. 255. 175. 16.
      0. 0. 0. 0. 0. 0. 0. 0. 0. 0. 0. 0. 31. 160. 240. 254. 255. 255.
      175. 16. 0. 0. 0. 0. 0. 0. 0. 0. 0. 0. 0. 0. 76. 235. 255. 255.
      255. 255. 175. 16. 0. 0. 0. 0. 0. 0. 0. 0. 0. 0. 0. 0. 80. 239.
      255. 255. 255. 255. 175. 16. 0. 0. 0. 0. 0. 0. 0. 0. 0. 0. 0. 0.
      75. 229. 254. 255. 255. 255. 175. 16. 0. 0. 0. 0. 0. 0. 0. 0. 0.
      0. 0. 0. 25. 105. 174. 230. 255. 255. 175. 16. 0. 0. 0. 0. 0. 0.
      0. 0. 0. 0. 0. 0. 0. 5. 25. 150. 250. 255. 175. 16. 0. 0. 0. 0. 0.
      0. 0. 0. 0. 0. 0. 0. 0. 0. 6. 116. 245. 255. 175. 16. 0. 0. 0. 0.
      0. 0. 0. 0. 0. 0. 0. 0. 0. 0. 15. 169. 254. 255. 175. 16. 0. 0. 0.
      0. 0. 0. 0. 0. 0. 0. 0. 0. 0. 0. 11. 145. 250. 254. 169. 15. 0. 0.
      0. 0. 0. 0. 0. 0. 0. 0. 0. 0. 0. 0. 1. 86. 240. 249. 139. 10. 0.
      0. 0. 0. 0. 0. 0. 0. 0. 0. 0. 0. 0. 0. 0. 80. 239. 249. 139. 10.
      0. 0. 0. 0. 0. 0. 0. 0. 0. 0. 0. 0. 0. 0. 0. 80. 239. 240. 86. 1.
      0. 0. 0. 0. 0. 0. 0. 0. 0. 0. 0. 0. 0. 0. 0. 80. 239. 239. 80. 0.
      0. 0. 0. 0. 0. 0. 0. 0. 0. 0. 0. 0. 0. 0. 5. 110. 244. 239. 80. 0.
      0. 0. 0. 0. 0. 0. 0. 0. 0. 0. 0. 0. 0. 0. 14. 163. 253. 239. 80.
      0. 0. 0. 0. 0. 0. 0. 0. 0. 0. 0. 0. 0. 0. 0. 10. 139. 249. 239.
      80. 0. 0. 0. 0. 0. 0. 0. 0. 0. 0. 0. 0. 0. 0. 0. 15. 169. 254.
      239. 80. 0. 0. 0. 0. 0. 0. 0. 0. 0. 0. 0. 0. 0. 0. 0. 16. 175.
      255. 240. 86. 1. 0. 0. 0. 0. 0. 0. 0. 0. 0. 0. 0. 0. 0. 0. 16.
      175. 255. 246. 122. 7. 0. 0.</_>
    <_>
      0. 0. 0. 0. 0. 0. 0. 0. 0. 18. 147. 243. 179. 50. 0. 0. 0. 0. 0.
      0. 0. 0. 0. 0. 0. 0. 0. 1. 15. 94. 218. 253. 230. 81. 1. 0. 0. 0.
      0. 0. 0. 0. 0. 0. 0. 0. 9. 65. 149. 224. 254. 255. 250. 145. 11.
      0. 0. 0. 0. 0. 0. 0. 0. 0. 0. 0. 59. 209. 250. 255. 255. 255. 255.
      175. 16. 0. 0. 0. 0. 0. 0. 0. 0. 0. 0. 0. 80. 239. 255. 255. 255.
      255. 251. 151. 12. 0. 0. 0. 0. 0. 0. 0. 0. 0. 0. 0. 76. 235. 255.
      255. 255. 255. 251. 151. 12. 0. 0. 0. 0. 0. 0. 0. 0. 0. 0. 0. 31.
      144. 199. 204. 250. 255. 255. 175. 16. 0. 0. 0. 0. 0. 0. 0. 0. 0.
      0. 0. 1. 15. 45. 125. 245. 255. 255. 175. 16. 0. 0. 0. 0. 0. 0. 0.
      0. 0. 0. 0. 0. 0. 10. 139. 249. 255. 255. 175. 16. 0. 0. 0. 0. 0.
      0. 0. 0. 0. 0. 0. 0. 0. 1. 86. 240. 255. 255. 175. 16. 0. 0. 0. 0.
      0. 0. 0. 0. 0. 0. 0. 0. 0. 5. 110. 244. 255. 255. 175. 16. 0. 0.
      0. 0. 0. 0. 0. 0. 0. 0. 0. 0. 0. 14. 163. 253. 255. 255. 175. 16.
      0. 0. 0. 0. 0. 0. 0. 0. 0. 0. 0. 0. 0. 6. 116. 245. 255. 255. 175.
      16. 0. 0. 0. 0. 0. 0. 0. 0. 0. 0. 0. 0. 0. 11. 145. 250. 255. 255.
      175. 16. 0. 0. 0. 0. 0. 0. 0. 0. 0. 0. 0. 0. 0. 15. 169. 254. 255.
      255. 175. 16. 0. 0. 0. 0. 0. 0. 0. 0. 0. 0. 0. 0. 0. 5. 110. 244.
      255. 254. 169. 15. 0. 0. 0. 0. 0. 0. 0. 0. 0. 0. 0. 0. 0. 0. 80.
      239. 255. 249. 139. 10. 0. 0. 0. 0. 0. 0. 0. 0. 0. 0. 0. 0. 0. 0.
      80. 239. 255. 254. 169. 15. 0. 0. 0. 0. 0. 0. 0. 0. 0. 0. 0. 0. 0.
      0. 80. 239. 255. 255. 175. 16. 0. 0. 0. 0. 0. 0. 0. 0. 0. 0. 0. 0.
      0. 0. 80. 239. 255. 255. 175. 16. 0. 0. 0. 0. 0.</_>
    <_>
      0. 0. 0. 0. 0. 0. 0. 0. 0. 2. 22. 64. 64. 22. 2. 0. 0. 0. 0. 0. 0.
      0. 0. 0. 0. 0. 0. 0. 9. 65. 145. 191. 187. 97. 7. 0. 0. 0. 0. 0.
      0. 0. 0. 0. 0. 0. 1. 31. 110. 214. 250. 255. 246. 122. 7. 0. 0. 0.
      0. 0. 0. 0. 0. 0. 0. 0. 31. 160. 240. 254. 255. 255. 244. 110. 5.
      0. 0. 0. 0. 0. 0. 0. 0. 0. 0. 0. 76. 235. 255. 255. 255. 255. 248.
      133. 9. 0. 0. 0. 0. 0. 0. 0. 0. 0. 0. 0. 80. 239. 255. 255. 255.
      255. 250. 145. 11. 0. 0. 0. 0. 0. 0. 0. 0. 0. 0. 0. 75. 224. 223.
      228. 254. 255. 246. 122. 7. 0. 0. 0. 0. 0. 0. 0. 0. 0. 0. 0. 25.
      75. 65. 125. 245. 255. 241. 92. 2. 0. 0. 0. 0. 0. 0. 0. 0. 0. 0.
      0. 0. 0. 6. 116. 245. 255. 250. 145. 11. 0. 0. 0. 0. 0. 0. 0. 0.
      0. 0. 0. 0. 0. 1. 86. 240. 255. 255. 175. 16. 0. 0. 0. 0. 0. 0. 0.
      0. 0. 0. 0. 0. 0. 1. 86. 240. 255. 255. 175. 16. 0. 0. 0. 0. 0. 0.
      0. 0. 0. 0. 0. 0. 0. 11. 145. 250. 255. 255. 175. 16. 0. 0. 0. 0.
      0. 0. 0. 0. 0. 0. 0. 0. 0. 16. 175. 255. 255. 255. 175. 16. 0. 0.
      0. 0. 0. 0. 0. 0. 0. 0. 0. 0. 0. 16. 175. 255. 255. 255. 175. 16.
      0. 0. 0. 0. 0. 0. 0. 0. 0. 0. 0. 0. 0. 16. 175. 255. 255. 250.
      145. 11. 0. 0. 0. 0. 0. 0. 0. 0. 0. 0. 0. 0. 0. 16. 175. 255. 255.
      240. 86. 1. 0. 0. 0. 0. 0. 0. 0. 0. 0. 0. 0. 0. 0. 16. 175. 255.
      255. 239. 80. 0. 0. 0. 0. 0. 0. 0. 0. 0. 0. 0. 0. 0. 0. 16. 175.
      255. 255. 239. 80. 0. 0. 0. 0. 0. 0. 0. 0. 0. 0. 0. 0. 0. 0. 16.
      175. 255. 255. 239. 80. 0. 0. 0. 0. 0. 0. 0. 0. 0. 0. 0. 0. 0. 0.
      12. 151. 251. 255. 239. 80. 0. 0. 0. 0. 0. 0.</_>
    <_>
      0. 0. 0. 0. 0. 0. 0. 0. 0. 0. 0. 18. 124. 225. 255. 255. 175. 16.
      0. 0. 0. 0. 0. 0. 0. 0. 0. 0. 0. 0. 5. 89. 214. 250. 255. 255.
      175. 16. 0. 0. 0. 0. 0. 0. 0. 0. 0. 0. 0. 0. 15. 169. 254. 255.
      255. 255. 175. 16. 0. 0. 0. 0. 0. 0. 0. 0. 0. 0. 0. 0. 16. 175.
      255. 255. 255. 255. 175. 16. 0. 0. 0. 0. 0. 0. 0. 0. 0. 0. 0. 0.
      16. 175. 254. 249. 254. 255. 175. 16. 0. 0. 0. 0. 0. 0. 0. 0. 0.
      0. 0. 0. 15. 160. 189. 164. 244. 255. 175. 16. 0. 0. 0. 0. 0. 0.
      0. 0. 0. 0. 0. 0. 5. 51. 35. 85. 239. 255. 175. 16. 0. 0. 0. 0. 0.
      0. 0. 0. 0. 0. 0. 0. 0. 0. 0. 60. 219. 255. 175. 16. 0. 0. 0. 0.
      0. 0. 0. 0. 0. 0. 0. 0. 0. 0. 0. 20. 179. 255. 175. 16. 0. 0. 0.
      0. 0. 0. 0. 0. 0. 0. 0. 0. 0. 0. 0. 16. 175. 255. 175. 16. 0. 0.
      0. 0. 0. 0. 0. 0. 0. 0. 0. 0. 0. 0. 0. 16. 175. 255. 175. 16. 0.
      0. 0. 0. 0. 0. 0. 0. 0. 0. 0. 0. 0. 0. 0. 16. 175. 255. 175. 16.
      0. 0. 0. 0. 0. 0. 0. 0. 0. 0. 0. 0. 0. 0. 0. 20. 179. 255. 175.
      16. 0. 0. 0. 0. 0. 0. 0. 0. 0. 0. 0. 0. 0. 0. 0. 56. 215. 255.
      175. 16. 0. 0. 0. 0. 0. 0. 0. 0. 0. 0. 0. 0. 0. 0. 0. 36. 195.
      255. 175. 16. 0. 0. 0. 0. 0. 0. 0. 0. 0. 0. 0. 0. 0. 0. 0. 36.
      195. 255. 175. 16. 0. 0. 0. 0. 0. 0. 0. 0. 0. 0. 0. 0. 0. 0. 0.
      72. 231. 255. 175. 16. 0. 0. 0. 0. 0. 0. 0. 0. 0. 0. 0. 0. 0. 0.
      0. 36. 195. 255. 175. 16. 0. 0. 0. 0. 0. 0. 0. 0. 0. 0. 0. 0. 0.
      0. 0. 36. 195. 255. 175. 16. 0. 0. 0. 0. 0. 0. 0. 0. 0. 0. 0. 0.
      0. 0. 0. 76. 235. 255. 175. 16. 0. 0.</_>
    <_>
      0. 0. 0. 0. 0. 0. 0. 0. 0. 0. 0. 18. 147. 249. 241. 92. 2. 0. 0.
      0. 0. 0. 0. 0. 0. 0. 0. 0. 0. 1. 31. 110. 218. 254. 250. 145. 11.
      0. 0. 0. 0. 0. 0. 0. 0. 0. 0. 0. 0. 31. 160. 240. 254. 255. 250.
      145. 11. 0. 0. 0. 0. 0. 0. 0. 0. 0. 0. 0. 0. 76. 235. 255. 255.
      255. 241. 92. 2. 0. 0. 0. 0. 0. 0. 0. 0. 0. 0. 0. 0. 80. 239. 255.
      255. 255. 249. 139. 10. 0. 0. 0. 0. 0. 0. 0. 0. 0. 0. 0. 0. 76.
      226. 196. 200. 250. 244. 110. 5. 0. 0. 0. 0. 0. 0. 0. 0. 0. 0. 0.
      0. 31. 107. 42. 91. 240. 244. 110. 5. 0. 0. 0. 0. 0. 0. 0. 0. 0.
      0. 0. 0. 1. 6. 1. 80. 239. 254. 169. 15. 0. 0. 0. 0. 0. 0. 0. 0.
      0. 0. 0. 0. 0. 0. 0. 80. 239. 255. 175. 16. 0. 0. 0. 0. 0. 0. 0.
      0. 0. 0. 0. 0. 0. 0. 0. 80. 239. 255. 175. 16. 0. 0. 0. 0. 0. 0.
      0. 0. 0. 0. 0. 0. 0. 0. 0. 80. 239. 255. 175. 16. 0. 0. 0. 0. 0.
      0. 0. 0. 0. 0. 0. 0. 0. 0. 0. 80. 239. 255. 175. 16. 0. 0. 0. 0.
      0. 0. 0. 0. 0. 0. 0. 0. 0. 0. 0. 80. 239. 255. 175. 16. 0. 0. 0.
      0. 0. 0. 0. 0. 0. 0. 0. 0. 0. 0. 0. 80. 239. 255. 175. 16. 0. 0.
      0. 0. 0. 0. 0. 0. 0. 0. 0. 0. 0. 0. 0. 80. 239. 255. 175. 16. 0.
      0. 0. 0. 0. 0. 0. 0. 0. 0. 0. 0. 0. 0. 0. 80. 239. 255. 175. 16.
      0. 0. 0. 0. 0. 0. 0. 0. 0. 0. 0. 0. 0. 0. 0. 80. 239. 255. 175.
      16. 0. 0. 0. 0. 0. 0. 0. 0. 0. 0. 0. 0. 0. 0. 0. 80. 239. 255.
      191. 32. 0. 0. 0. 0. 0. 0. 0. 0. 0. 0. 0. 0. 0. 0. 0. 80. 239.
      255. 191. 32. 0. 0. 0. 0. 0. 0. 0. 0. 0. 0. 0. 0. 0. 0. 0. 80.
      239. 255. 175. 16. 0. 0. 0.</_>
    <_>
      0. 0. 0. 0. 0. 0. 0. 0. 0. 0. 0. 0. 18. 124. 225. 255. 255. 231.
      72. 0. 0. 0. 0. 0. 0. 0. 0. 0. 0. 0. 0. 0. 59. 209. 250. 255. 255.
      215. 56. 0. 0. 0. 0. 0. 0. 0. 0. 0. 0. 0. 0. 0. 80. 239. 255. 255.
      255. 231. 72. 0. 0. 0. 0. 0. 0. 0. 0. 0. 0. 0. 0. 0. 80. 239. 255.
      255. 255. 195. 36. 0. 0. 0. 0. 0. 0. 0. 0. 0. 0. 0. 0. 0. 75. 224.
      219. 204. 250. 195. 36. 0. 0. 0. 0. 0. 0. 0. 0. 0. 0. 0. 0. 0. 25.
      75. 60. 95. 240. 235. 76. 0. 0. 0. 0. 0. 0. 0. 0. 0. 0. 0. 0. 0.
      0. 0. 0. 80. 239. 239. 80. 0. 0. 0. 0. 0. 0. 0. 0. 0. 0. 0. 0. 0.
      0. 0. 0. 80. 239. 239. 80. 0. 0. 0. 0. 0. 0. 0. 0. 0. 0. 0. 0. 0.
      0. 0. 0. 80. 239. 239. 80. 0. 0. 0. 0. 0. 0. 0. 0. 0. 0. 0. 0. 0.
      0. 0. 0. 80. 239. 223. 64. 0. 0. 0. 0. 0. 0. 0. 0. 0. 0. 0. 0. 0.
      0. 0. 0. 80. 239. 223. 64. 0. 0. 0. 0. 0. 0. 0. 0. 0. 0. 0. 0. 0.
      0. 0. 1. 86. 240. 235. 76. 0. 0. 0. 0. 0. 0. 0. 0. 0. 0. 0. 0. 0.
      0. 0. 6. 116. 245. 215. 56. 0. 0. 0. 0. 0. 0. 0. 0. 0. 0. 0. 0. 0.
      0. 0. 1. 86. 240. 231. 72. 0. 0. 0. 0. 0. 0. 0. 0. 0. 0. 0. 0. 0.
      0. 0. 0. 80. 239. 195. 36. 0. 0. 0. 0. 0. 0. 0. 0. 0. 0. 0. 0. 0.
      0. 0. 0. 80. 239. 179. 20. 0. 0. 0. 0. 0. 0. 0. 0. 0. 0. 0. 0. 0.
      0. 0. 0. 80. 239. 215. 56. 0. 0. 0. 0. 0. 0. 0. 0. 0. 0. 0. 0. 0.
      0. 0. 4. 104. 243. 195. 36. 0. 0. 0. 0. 0. 0. 0. 0. 0. 0. 0. 0. 0.
      0. 0. 4. 104. 243. 179. 20. 0. 0. 0. 0. 0. 0. 0. 0. 0. 0. 0. 0. 0.
      0. 0. 0. 80. 239. 219. 60. 0.</_>
    <_>
      0. 0. 0. 0. 0. 0. 0. 0. 0. 0. 0. 0. 10. 139. 249. 199. 40. 0. 0.
      0. 0. 0. 0. 0. 0. 0. 0. 0. 0. 0. 0. 0. 10. 139. 249. 183. 24. 0.
      0. 0. 0. 0. 0. 0. 0. 0. 0. 0. 0. 0. 0. 1. 12. 97. 241. 203. 44. 0.
      0. 0. 0. 0. 0. 0. 0. 0. 0. 0. 0. 0. 9. 65. 145. 200. 250. 223. 64.
      0. 0. 0. 0. 0. 0. 0. 0. 0. 0. 0. 0. 0. 59. 209. 250. 255. 255.
      239. 80. 0. 0. 0. 0. 0. 0. 0. 0. 0. 0. 0. 0. 0. 80. 239. 255. 255.
      255. 235. 76. 0. 0. 0. 0. 0. 0. 0. 0. 0. 0. 0. 0. 0. 80. 239. 255.
      255. 255. 195. 36. 0. 0. 0. 0. 0. 0. 0. 0. 0. 0. 0. 0. 0. 75. 224.
      219. 204. 250. 195. 36. 0. 0. 0. 0. 0. 0. 0. 0. 0. 0. 0. 0. 0. 25.
      75. 60. 95. 240. 235. 76. 0. 0. 0. 0. 0. 0. 0. 0. 0. 0. 0. 0. 0.
      0. 0. 0. 80. 239. 223. 64. 0. 0. 0. 0. 0. 0. 0. 0. 0. 0. 0. 0. 0.
      0. 0. 0. 80. 239. 223. 64. 0. 0. 0. 0. 0. 0. 0. 0. 0. 0. 0. 0. 0.
      0. 0. 0. 80. 239. 239. 80. 0. 0. 0. 0. 0. 0. 0. 0. 0. 0. 0. 0. 0.
      0. 0. 0. 80. 239. 223. 64. 0. 0. 0. 0. 0. 0. 0. 0. 0. 0. 0. 0. 0.
      0. 0. 0. 80. 239. 223. 64. 0. 0. 0. 0. 0. 0. 0. 0. 0. 0. 0. 0. 0.
      0. 0. 0. 80. 239. 223. 64. 0. 0. 0. 0. 0. 0. 0. 0. 0. 0. 0. 0. 0.
      0. 0. 0. 80. 239. 223. 64. 0. 0. 0. 0. 0. 0. 0. 0. 0. 0. 0. 0. 0.
      0. 0. 0. 80. 239. 235. 76. 0. 0. 0. 0. 0. 0. 0. 0. 0. 0. 0. 0. 0.
      0. 0. 0. 80. 239. 195. 36. 0. 0. 0. 0. 0. 0. 0. 0. 0. 0. 0. 0. 0.
      0. 0. 0. 80. 239. 179. 20. 0. 0. 0. 0. 0. 0. 0. 0. 0. 0. 0. 0. 0.
      0. 0. 0. 80. 239. 219. 60. 0. 0. 0.</_>
    <_>
      0. 0. 0. 0. 0. 0. 0. 0. 0. 0. 0. 0. 8. 128. 247. 175. 16. 0. 0. 0.
      0. 0. 0. 0. 0. 0. 0. 0. 0. 0. 0. 0. 4. 104. 243. 195. 36. 0. 0. 0.
      0. 0. 0. 0. 0. 0. 0. 0. 0. 0. 1. 15. 60. 134. 244. 231. 72. 0. 0.
      0. 0. 0. 0. 0. 0. 0. 0. 0. 0. 0. 31. 144. 219. 244. 254. 215. 56.
      0. 0. 0. 0. 0. 0. 0. 0. 0. 0. 0. 0. 0. 76. 235. 255. 255. 255.
      235. 76. 0. 0. 0. 0. 0. 0. 0. 0. 0. 0. 0. 0. 0. 80. 239. 255. 255.
      255. 219. 60. 0. 0. 0. 0. 0. 0. 0. 0. 0. 0. 0. 0. 0. 80. 239. 250.
      245. 254. 183. 24. 0. 0. 0. 0. 0. 0. 0. 0. 0. 0. 0. 0. 0. 55. 164.
      145. 140. 244. 219. 60. 0. 0. 0. 0. 0. 0. 0. 0. 0. 0. 0. 0. 0. 5.
      15. 11. 81. 239. 235. 76. 0. 0. 0. 0. 0. 0. 0. 0. 0. 0. 0. 0. 0.
      0. 0. 0. 80. 239. 215. 56. 0. 0. 0. 0. 0. 0. 0. 0. 0. 0. 0. 0. 0.
      0. 0. 0. 80. 239. 235. 76. 0. 0. 0. 0. 0. 0. 0. 0. 0. 0. 0. 0. 0.
      0. 0. 0. 80. 239. 235. 76. 0. 0. 0. 0. 0. 0. 0. 0. 0. 0. 0. 0. 0.
      0. 0. 0. 80. 239. 215. 56. 0. 0. 0. 0. 0. 0. 0. 0. 0. 0. 0. 0. 0.
      0. 0. 0. 80. 239. 235. 76. 0. 0. 0. 0. 0. 0. 0. 0. 0. 0. 0. 0. 0.
      0. 0. 4. 104. 243. 239. 80. 0. 0. 0. 0. 0. 0. 0. 0. 0. 0. 0. 0. 0.
      0. 0. 4. 104. 243. 239. 80. 0. 0. 0. 0. 0. 0. 0. 0. 0. 0. 0. 0. 0.
      0. 0. 0. 80. 239. 235. 76. 0. 0. 0. 0. 0. 0. 0. 0. 0. 0. 0. 0. 0.
      0. 0. 4. 104. 243. 195. 36. 0. 0. 0. 0. 0. 0. 0. 0. 0. 0. 0. 0. 0.
      0. 0. 4. 104. 243. 195. 36. 0. 0. 0. 0. 0. 0. 0. 0. 0. 0. 0. 0. 0.
      0. 0. 0. 80. 239. 235. 76. 0. 0. 0.</_>
    <_>
      0. 0. 0. 0. 0. 0. 0. 0. 0. 0. 0. 0. 0. 0. 0. 0. 0. 0. 0. 0. 0. 0.
      0. 0. 0. 5. 15. 16. 16. 16. 16. 15. 5. 0. 0. 0. 0. 0. 0. 0. 0. 0.
      0. 5. 35. 106. 169. 175. 175. 175. 175. 169. 110. 59. 9. 0. 0. 0.
      0. 0. 0. 0. 5. 85. 189. 235. 244. 254. 251. 251. 255. 254. 244.
      213. 93. 9. 0. 0. 0. 0. 0. 0. 14. 158. 218. 149. 116. 169. 151.
      151. 195. 240. 254. 254. 213. 59. 0. 0. 0. 0. 0. 0. 5. 55. 60. 15.
      6. 15. 12. 12. 36. 130. 244. 255. 244. 110. 5. 0. 0. 0. 0. 0. 0.
      0. 0. 0. 0. 0. 0. 0. 0. 60. 219. 255. 254. 169. 15. 0. 0. 0. 6. 1.
      0. 0. 0. 0. 0. 0. 0. 0. 0. 40. 199. 255. 255. 175. 16. 0. 0. 0.
      106. 31. 0. 0. 0. 0. 0. 0. 0. 0. 1. 82. 236. 255. 254. 169. 15. 0.
      0. 0. 215. 76. 0. 0. 0. 0. 0. 0. 0. 5. 41. 166. 250. 254. 218. 89.
      5. 0. 0. 0. 215. 76. 0. 0. 0. 0. 0. 1. 11. 66. 186. 246. 255. 240.
      110. 9. 0. 0. 0. 0. 167. 52. 0. 0. 0. 0. 1. 21. 126. 200. 250.
      255. 250. 185. 35. 0. 0. 0. 0. 0. 122. 31. 0. 0. 0. 5. 61. 150.
      230. 255. 254. 224. 149. 61. 5. 0. 0. 0. 0. 0. 30. 5. 0. 0. 1. 41.
      186. 250. 255. 250. 214. 94. 15. 1. 0. 0. 0. 0. 0. 0. 0. 0. 0. 1.
      37. 162. 246. 254. 240. 165. 65. 9. 0. 0. 0. 0. 0. 0. 0. 0. 0. 0.
      0. 11. 141. 246. 255. 224. 111. 31. 1. 0. 0. 0. 0. 0. 0. 0. 0. 0.
      0. 0. 0. 36. 195. 255. 255. 200. 51. 11. 6. 15. 16. 16. 16. 16.
      15. 5. 0. 0. 0. 0. 5. 106. 240. 255. 255. 246. 196. 145. 116. 169.
      175. 175. 175. 175. 169. 85. 5. 0. 0. 0. 10. 119. 218. 244. 253.
      245. 245. 236. 240. 254. 255. 255. 255. 255. 254. 169. 15. 0. 0.
      0. 1. 15. 60. 115. 177. 122. 122. 94. 156. 191. 191. 191. 191.
      191. 191. 131. 12. 0.</_>
    <_>
      0. 0. 0. 0. 0. 0. 0. 0. 0. 0. 0. 0. 0. 0. 0. 0. 0. 0. 0. 0. 0. 0.
      0. 0. 0. 5. 15. 16. 16. 16. 16. 11. 1. 0. 0. 0. 0. 0. 0. 0. 0. 0.
      1. 11. 20. 90. 169. 175. 175. 175. 175. 145. 82. 35. 5. 0. 0. 0.
      0. 0. 0. 0. 11. 121. 179. 219. 239. 239. 239. 240. 250. 250. 236.
      189. 89. 9. 0. 0. 0. 0. 0. 0. 15. 164. 219. 149. 86. 80. 80. 86.
      149. 224. 254. 254. 218. 89. 5. 0. 0. 0. 0. 0. 5. 55. 60. 15. 1.
      0. 0. 1. 15. 95. 224. 255. 254. 169. 15. 0. 0. 0. 0. 0. 0. 0. 0.
      0. 0. 0. 0. 0. 0. 20. 179. 255. 255. 175. 16. 0. 0. 0. 6. 1. 0. 0.
      0. 0. 0. 0. 0. 0. 0. 36. 195. 255. 255. 175. 16. 0. 0. 0. 74. 15.
      0. 0. 0. 0. 0. 0. 0. 0. 9. 110. 240. 255. 250. 145. 11. 0. 0. 0.
      183. 60. 0. 0. 0. 0. 0. 0. 0. 1. 65. 214. 254. 254. 230. 81. 1. 0.
      0. 0. 223. 80. 0. 0. 0. 0. 0. 0. 5. 41. 166. 250. 255. 240. 126.
      25. 0. 0. 0. 0. 183. 60. 0. 0. 0. 0. 1. 15. 90. 190. 246. 254.
      240. 160. 31. 0. 0. 0. 0. 0. 98. 19. 0. 0. 0. 9. 65. 149. 224.
      254. 250. 230. 126. 31. 1. 0. 0. 0. 0. 0. 30. 5. 0. 0. 5. 89. 214.
      250. 255. 246. 166. 81. 25. 0. 0. 0. 0. 0. 0. 0. 0. 0. 0. 1. 41.
      190. 254. 254. 240. 161. 37. 1. 0. 0. 0. 0. 0. 0. 0. 0. 0. 0. 0.
      15. 145. 246. 254. 218. 110. 31. 1. 0. 0. 0. 0. 0. 0. 0. 0. 0. 0.
      0. 5. 90. 224. 255. 249. 148. 29. 12. 12. 16. 16. 16. 16. 16. 11.
      1. 0. 0. 0. 0. 15. 169. 254. 255. 254. 224. 179. 151. 151. 175.
      175. 175. 175. 175. 145. 61. 5. 0. 0. 0. 11. 140. 235. 239. 240.
      246. 246. 241. 250. 255. 255. 255. 255. 255. 249. 159. 14. 0. 0.
      0. 1. 31. 76. 80. 87. 128. 128. 122. 184. 191. 191. 191. 191. 191.
      184. 90. 5. 0.</_>
    <_>
      0. 0. 0. 0. 0. 0. 0. 0. 0. 0. 0. 0. 0. 0. 0. 0. 0. 0. 0. 0. 0. 0.
      0. 0. 0. 1. 11. 16. 16. 16. 16. 15. 5. 0. 0. 0. 0. 0. 0. 0. 0. 0.
      0. 5. 35. 82. 145. 175. 175. 175. 175. 169. 106. 35. 5. 0. 0. 0.
      0. 0. 0. 0. 5. 85. 189. 236. 250. 254. 249. 254. 255. 254. 240.
      189. 89. 9. 0. 0. 0. 0. 0. 0. 15. 168. 223. 179. 175. 169. 139.
      169. 195. 240. 254. 254. 213. 59. 0. 0. 0. 0. 0. 0. 11. 115. 90.
      20. 16. 15. 10. 15. 36. 127. 240. 255. 244. 110. 5. 0. 0. 0. 0. 0.
      1. 10. 5. 0. 0. 0. 0. 0. 0. 36. 195. 255. 254. 169. 15. 0. 0. 0.
      30. 5. 0. 0. 0. 0. 0. 0. 0. 0. 0. 20. 179. 255. 255. 175. 16. 0.
      0. 0. 129. 35. 0. 0. 0. 0. 0. 0. 0. 0. 1. 66. 220. 255. 254. 169.
      15. 0. 0. 0. 215. 76. 0. 0. 0. 0. 0. 0. 0. 5. 61. 170. 250. 254.
      218. 89. 5. 0. 0. 0. 223. 80. 0. 0. 0. 0. 0. 0. 5. 45. 186. 250.
